//Line 1 and 2 : Weights and Bias of 1st conv layer, Line 3 and 4 : W/B of 2nd conv layer, Line 5 to 10 : W/B of the 3 dense layers 
float Conv1_weights[] = {0.14885764,0.37494487,0.16498587,0.38745376,0.51392084,0.29742742,-0.12523615,-0.028609319,-0.023428475,0.13946043,-0.16308393,-0.39052927,-0.4238761,-0.25796756,0.17594904,-0.38821512,-0.6010565,-0.4607508,-0.36855707,0.05517188,0.011260478,0.019813221,-0.24205242,0.16143684,0.2994085,-0.024926597,-0.18686625,0.1707779,0.026528614,0.12160394,-0.32910752,-0.41255924,-0.15047067,-0.105055556,0.11090021,-0.38409686,-0.61317647,-0.13838324,-0.1659163,0.25052673,-0.040420502,-0.12049666,0.023747748,0.01609462,0.19203842,0.14359753,0.28410313,0.22490665,0.023536483,0.30693305,0.08370273,0.21745135,0.35214105,0.23255053,0.17112455,0.16891432,0.30031416,0.24922758,0.012118074,-0.024519907,0.052088935,0.43744516,0.20297065,-0.1392011,-0.009338209,0.1386335,0.13704862,-0.40586397,-0.3609235,-0.13726021,0.0066976333,-0.4004428,-0.449974,-0.44894388,-0.33812416,-0.18015032,0.060720712,0.12461175,0.49790245,0.51012415,-0.1342755,0.03780337,0.16692793,0.7388009,0.38865173,-0.12126113,-0.16623001,0.4205379,0.7345211,-0.03719097,-0.28653476,0.13323708,0.5846814,0.47352222,-0.024780737,0.013010218,-0.0188777,0.4483366,0.079653315,-0.17229623,0.011380198,0.118731886,0.26684815,0.17407914,0.23737778,-0.2700636,-0.05128103,-0.017445393,-0.098287284,-0.19243023,-0.1775029,-0.2470549,-0.6884248,-0.3723971,-0.39553568,-0.08901975,-0.32184473,-0.33814824,-0.22139585,-0.11204732,0.12100522,0.1866199,0.25442338,0.24065986,0.16718438,0.081083246,-0.2681625,-0.09523037,-0.28074017,-0.51023656,-0.26488757,-0.10028924,-0.2753478,0.012067786,-0.20182951,-0.257039,0.07316213,0.13920137,0.097339325,0.25149053,0.009065244,0.24934971,0.24406968,0.7167589,0.37572834,-0.21643907,-0.112065345,0.2632728,0.28925103,0.2724532};
float Conv1_bias[] = {0.07004097,0.13139927,-0.03919504,-0.07358949,0.0901557,-0.06023557};
float Conv2_weights[] = {-0.050103847,-0.1530405,-0.13919823,-0.05888107,0.062209304,0.045210354,0.23272075,0.18488568,-0.025132358,-0.14941509,-0.005498016,0.09378621,0.09887702,-0.023129515,-0.19382997,-0.16176176,-0.29003522,-0.034631297,0.084227666,0.12194793,0.06396514,0.00052889844,-0.093642354,-0.14171241,0.11510871,0.091582984,0.116356894,-0.109201945,-0.13829958,-0.06491054,0.053589083,-0.11374231,0.048724435,0.12125412,0.07931433,0.115404256,0.1606952,0.06894183,0.11580352,-0.098351255,-0.04590525,-0.19661026,-0.039666213,0.11736411,0.05511343,0.040533677,-0.15807234,0.04930587,0.003622735,0.16649322,0.007972814,0.08775767,0.092171386,0.010831044,-0.053745914,0.015939454,0.25426698,0.11819268,-0.15204783,-0.0819643,-0.3404346,-0.020193785,0.08241302,0.013217851,0.14322703,-0.14948386,-0.07173327,-0.056223273,-0.10292716,0.03955886,0.12129809,0.093492776,-0.20562229,-0.35023674,-0.22522365,-0.118949115,0.18981081,0.1667478,0.052943476,-0.12564944,0.01686265,-0.04238035,0.059676733,-0.016815964,-0.12582992,-0.039721277,-0.16690269,-0.11252499,-0.10395943,0.020677252,-0.032532208,-0.09300216,-0.104446314,0.09208888,-0.08807247,0.11321789,0.025526647,0.21942383,-0.016965996,0.019271968,0.054087147,0.018822234,-0.16597347,-0.1416688,0.055902272,0.11624786,-0.043976583,-0.09954137,-0.058289897,0.031671256,0.20549788,0.20598257,0.066358946,-0.068225026,-0.18943736,-0.028660974,0.032682158,-0.012775913,0.028629621,0.050794624,0.06251012,0.0063104033,0.020647855,0.096934095,-0.027738867,0.02288158,-0.07341374,-0.1476832,-0.054421708,-0.03541551,-0.2321249,-0.3382105,-0.24480066,0.11814439,0.1773854,0.042663164,0.04568399,-0.15280981,0.06650384,-0.011533585,0.31670406,0.018749155,-0.1083915,-0.2054486,-0.20103317,-0.054918513,-0.00096241373,0.07948629,0.1959059,0.04134955,0.10351151,0.19702785,-0.08675439,-0.042202752,-0.15244836,-0.06283403,-0.025320522,-0.16753541,-0.3180331,-0.27447107,0.08767088,0.21736233,0.12107169,0.0021430084,-0.01312002,0.061327957,0.3160627,0.14730917,0.055429626,0.052030295,-0.122787625,0.07335292,0.08976138,-0.0846829,-0.06789918,0.01615451,0.19885658,0.16151804,0.12678015,0.11034772,-0.012406787,0.18954058,0.012187898,-0.24247685,-0.15193717,-0.060792536,0.120097786,0.028650433,-0.11867194,-0.029555853,-0.074343376,0.13331424,0.16981867,-0.045661584,0.0637253,-0.10732641,0.18000485,0.21476822,0.12700303,-0.007750684,0.1580853,-0.08164779,-0.24221595,-0.23334838,-0.20965195,0.08483888,-0.2081935,-0.18448742,0.04998906,-0.063484006,0.31125152,-0.03519607,0.18104956,0.3302724,0.018263875,0.09961871,-0.17939226,0.06852018,0.10338789,0.06636544,-0.01958253,-0.26144084,-0.13634318,0.047664814,0.26033553,0.028956769,0.06863961,0.03385803,0.0184877,0.007998682,-0.13847673,0.014333619,0.0792568,-0.009305214,0.050556682,-0.14736272,-0.090891704,-0.08395734,-0.025633072,-0.0032778005,-0.27586406,-0.058194704,-0.16850266,-0.054206543,-0.045475204,-0.18739192,-0.2333813,-0.24225703,-0.10759295,-0.0029948994,0.16116278,0.14890936,0.060029913,-0.037963364,-0.035603788,0.11202561,-0.07909194,-0.031626407,-0.2682501,-0.24346219,0.09355516,0.12783842,-0.028223433,-0.11712228,0.034650117,0.084892,0.121385396,0.2209639,0.05517573,0.044777844,-0.13510384,0.064238064,-0.013149579,0.01616675,0.037073314,-0.10816841,0.029352946,0.18726236,0.07127918,0.096602105,-0.14955273,0.18498755,0.4086261,0.061643265,0.04428048,-0.33210298,-0.069294214,0.010684419,-0.12311916,-0.17960411,-0.2994222,-0.06660795,-0.097512946,-0.13983148,-0.0064638844,0.00022271788,0.15441217,0.22788303,0.025118137,-0.14503485,-0.17097773,-0.08632682,0.17798527,0.20314218,-0.042053897,-0.092156485,0.006846398,0.013923884,0.064901434,0.18143304,0.027358267,-0.3907962,-0.19917752,0.20956594,0.13313018,0.16688676,-0.34513587,0.052086696,0.1650989,0.023024652,-0.032615904,-0.11254549,-0.0077355606,-0.0601032,-0.005311336,-0.12822959,-0.002670639,0.054189384,-0.021098481,-0.17578013,0.019510038,-0.09697443,0.13658142,0.1454603,0.088795856,-0.026412673,-0.21649526,-0.2157347,0.051801227,0.191173,0.08443591,-0.12994604,-0.2541935,0.14572681,0.10581377,0.06468472,-0.16421928,-0.24317312,0.045943208,-0.17845954,0.14004497,0.06566453,0.004131332,0.087690584,0.28974584,-0.13623641,-0.14547658,0.05678843,-0.0047158077,-0.032048512,-0.13431285,-0.012878206,0.23920028,-0.114062116,-0.25113794,-0.20104924,0.18585666,0.22764072,-0.17320916,-0.035211384,-0.10097858,0.26432797,0.15836756,-0.13384339,0.016224736,-0.0653081,-0.2032554,-0.061452687,0.0579641,-0.061273992,-0.0824964,-0.13216703,-0.0011379155,0.033026148,-0.055081286,-0.0018270555,0.043640085,-0.09406539,0.021489112,-0.081586465,0.23032425,0.2564145,0.049635284,0.16312253,0.17383637,0.1367258,0.038664762,0.10838032,0.17034422,0.15032214,-0.08139402,-0.103601664,0.10781541,0.03441699,-0.07369897,0.041200966,0.1183786,0.0128291845,0.18390764,0.06989278,-0.015152663,-0.20433575,-0.088213935,0.14442436,0.08522983,-0.044783577,-0.09669973,-0.00047668396,0.11861719,0.05101161,-0.04365913,-0.11707554,-0.09330596,0.03819665,-0.057595078,-0.017435828,-0.35462993,-0.2984966,-0.16814005,-0.13910282,0.17396201,0.042907584,-0.023086607,-0.13360746,-0.06603678,0.19099963,0.07729102,-0.26385012,0.06633419,0.038373176,0.15528738,-0.00085189985,-0.10958612,0.17527825,0.116769776,-0.051020324,-0.029726617,-0.026896587,0.12796824,-0.00883775,0.007363135,-0.2093504,-0.11975215,0.03918167,0.25853476,-0.07551078,-0.08690945,0.27262127,0.27542254,0.13797435,0.030805921,-0.3389465,-0.2255299,-0.05344105,-0.1472351,0.12760349,-0.08467406,-0.26948196,-0.07211489,0.08802997,0.21380547,0.15453771,0.15164754,0.042012017,-0.1351596,-0.054166067,-0.11398697,-0.14997868,0.12257018,0.14765242,-0.13736136,-0.043919053,0.01785232,0.14730144,0.12844586,-0.03328594,-0.18473567,0.06855641,0.13306165,0.011644923,-0.10859152,-0.072586134,-0.37322703,-0.15357864,-0.07430172,0.1396181,0.1366961,-0.14968629,-0.12425,-0.020402731,0.00055139186,0.018473167,0.15724756,0.12098304,0.16136764,-0.06505779,0.05668447,0.14562081,-0.06440876,-0.19194037,-0.08641352,-0.03992819,-0.1304926,-0.29596666,-0.13952453,0.16800673,0.16952243,0.07162345,0.056106754,-0.103316374,0.03551839,0.13596648,0.33875462,0.052990515,0.06244549,-0.0054044276,-0.15398455,-0.12203329,-0.10097186,-0.055524267,-0.030385599,-0.17086034,0.008269733,0.04886949,-0.11438962,0.08246438,-0.10233688,-0.08247282,-0.061331984,0.08979133,-0.0057657324,0.18844353,0.18765096,-0.03450234,0.06959533,-0.1939878,0.052114498,-0.06737338,0.015738616,0.071231894,-0.13292724,-0.0088082915,-0.045809135,0.09804227,0.08266217,-0.0639997,-0.025637828,0.24192074,0.09977955,0.14172463,-0.12197078,-0.01410396,0.059056982,0.031754088,-0.020971688,0.10563023,-0.15807766,-0.2746502,-0.061771594,-0.1281759,0.16329235,0.20123039,-0.022498049,-0.061756182,-0.15360491,0.15542895,-0.12297872,0.014457748,-0.07453358,-0.027277628,0.18031119,-0.053698666,-0.25318196,-0.05815734,0.14675756,0.3207118,0.3849332,0.044776965,0.17830059,-0.0077730357,-0.1542237,0.05875286,0.06546688,-0.05922074,0.0006531754,-0.24942707,-0.3151104,-0.19173434,0.066217825,0.13729677,-0.053614907,-0.2057915,0.1166645,0.34989858,0.31341454,0.035245974,-0.249677,0.10395133,0.21760997,-0.018059285,-0.023692535,-0.11112964,-0.084810734,-0.017708648,-0.25848225,0.112298556,-0.07490754,-0.035902474,0.013438177,0.060145278,-0.30878118,-0.12394287,0.127394,0.13768892,0.18268669,-0.20007889,-0.09016052,-0.13975346,0.08489863,0.115049556,-0.05589831,-0.17984112,0.079765625,0.30444074,0.04429794,-0.05449859,-0.20005353,0.021335099,0.18009311,0.012608501,0.031766143,0.08266726,0.022979695,-0.07344649,-0.07955667,-0.1655492,-0.13547298,0.07095197,-0.056300387,0.07941344,0.01427691,0.27618262,0.3935453,0.20101279,-0.031199843,-0.12823676,-0.062207215,0.23754156,-0.26779953,-0.2822214,-0.08580235,0.10959333,-0.062413923,-0.22742523,0.043005288,-0.14256574,0.070407435,-0.032254547,-0.015558827,0.18769561,-0.20705526,0.09362229,-0.015341148,-0.07192033,0.09405694,0.093137704,0.0008969471,-0.10973825,-0.08500562,-0.043368068,0.007545974,0.042918272,-0.25201938,-0.10612766,-0.20445286,-0.08888742,-0.14893371,-0.24643104,0.012272328,-0.009679913,-0.20836993,-0.19468203,-0.057590626,0.041240662,0.056322705,-0.15283419,-0.07743231,-0.015448677,0.045531213,0.015928436,-0.069188505,-0.1524274,-0.05513446,0.056633312,0.06416385,-0.13313223,-0.024274746,0.05247764,0.19296215,0.048498105,-0.19698857,-0.104521796,-0.030188343,0.06533711,-0.18373197,-0.004009379,-0.08455525,-0.02342125,0.03827318,0.04234021,-0.076485716,-0.060039118,-0.077029794,0.012649387,0.025498863,-0.13381156,-0.26812753,-0.5164817,-0.32889098,0.059838023,0.075793386,0.053773157,-0.26132968,0.20783822,0.19988218,0.07857835,-0.092731625,0.123945706,0.304941,0.06955641,0.09543988,-0.08073441,0.027743021,0.09671366,-0.07971857,0.23831037,0.11318458,-0.12892342,-0.089765556,0.16702238,0.07293054,0.0756222,0.12555496,-0.05913806,-0.23653126,0.37196252,0.6785058,0.49838367,0.37474874,-0.064014785,-0.039074957,-0.13419262,-0.16161168,0.32603496,0.15836762,-0.0785126,-0.06637489,-0.02184327,0.2512993,0.03532993,-0.05967601,0.06827755,0.1552822,0.13216875,0.06109538,-0.034048,-0.17351551,-0.23551577,-0.198942,-0.20309873,0.07560149,0.07992937,0.19377677,0.122475915,-0.052054677,0.1901035,0.16489013,0.28742817,0.32056022,0.19240707,0.027711907,-0.18805237,-0.13886485,0.20045404,0.20921366,0.00059894554,0.058424726,0.05809559,0.23113064,0.2516476,0.08435133,0.26183432,0.26742414,-0.07483999,-0.1181157,0.12521169,0.06551329,0.1711298,-0.09937615,-0.055590123,-0.32867348,-0.36481142,-0.11029164,-0.15031005,-0.21302035,-0.08201064,0.051608775,0.16471425,-0.13962594,-0.31152925,0.06297241,0.050147235,0.092909664,-0.32903197,-0.3309556,0.13159564,0.19659425,0.2207919,0.03969103,0.118782215,0.024588332,-0.11692409,-0.07081141,0.108858,0.11756185,-0.09836894,-0.12651369,-0.07242726,-0.012420647,-0.028731182,0.15054663,0.15698713,-0.050904818,-0.04635597,0.0564724,0.0289231,0.049201872,-0.15655413,-0.093751706,0.077815324,0.19687024,-0.020488953,0.02190734,-0.15952197,-0.07011653,0.40204516,0.50388056,0.24983594,0.12947896,-0.012546059,0.22606374,0.22658879,0.092645235,0.09525321,0.05690376,-0.0069577997,-0.08375214,0.07763179,0.13093905,0.0066962983,-0.0018248088,0.09511127,0.20690106,0.09632467,-0.076247886,-0.21572918,-0.1718814,-0.046059888,0.062092077,0.28013423,-0.46026042,-0.32821772,-0.2885714,-0.02713398,0.24395466,0.4067208,0.16394584,-0.08461468,-0.10275323,0.24442425,0.08150062,-0.19333607,-0.28232563,0.0070709684,0.3015472,-0.14339754,-0.31815305,-0.107789904,0.16675818,0.15872552,0.0853213,-0.10858471,0.019626157,-0.040275488,-0.1745926,0.17021461,0.14350648,0.24679315,0.23259284,0.05520405,-0.06279719,0.027884316,-0.093772076,-0.06269278,0.053902097,0.048371147,-0.028175198,-0.09312224,0.109209254,0.3456424,0.20666192,0.15088035,0.07240478,0.0640558,0.22312163,0.08739462,0.022995578,-0.1953973,-0.09005585,-0.14210802,0.10751511,0.04992896,0.091655836,0.11479108,-0.075299986,0.104721785,0.14772207,0.1566994,0.08153896,0.04496477,-0.05590087,0.03178509,-0.07187305,-0.15686032,0.1357425,0.09986849,0.014487145,0.032724906,-0.016145004,0.28314948,0.067483775,0.1454004,0.24891096,0.26046547,0.05502167,-0.032849077,0.11995376,0.018649762,0.029140107,-0.003139404,-0.15301609,-0.16785784,-0.19068341,-0.044933602,0.18146943,0.090924345,-0.13342811,0.108569354,0.31492656,0.14538224,-0.0120147625,-0.04917132,-0.13356556,-0.10660371,-0.3351893,-0.09750859,0.14833006,0.15766461,0.16315407,-0.07630991,-0.04611612,-0.026245164,0.015040464,0.12815474,0.07033349,-0.033675414,-0.009895451,-0.15422434,0.0035161262,0.12599047,0.18599291,0.16252983,0.018237878,0.002932805,-0.10216734,0.03806285,0.17399001,0.09695109,-0.03714474,-0.19236198,0.052390397,-0.051978007,-0.0077827135,-0.028753612,0.106685676,0.07668044,0.23149487,0.22665183,0.07427232,-0.0039745257,0.022561673,0.112528786,-0.017532576,0.04686328,-0.069790535,-0.062986925,-0.061347507,-0.11305989,0.16750002,0.03892297,0.047707506,-0.026108341,0.03072754,0.1643372,0.12236507,0.057542168,-0.001690916,0.042805117,0.124564305,0.18995313,-0.16079113,-0.27178544,-0.23199232,-0.13551931,0.2091624,0.23956127,0.24306545,0.24904525,-0.009328467,0.06103253,-0.11123229,-0.000250805,-0.10642815,-0.35006657,-0.22624266,-0.02895916,0.12040433,-0.010071735,-0.088233806,0.024360806,-0.053617947,0.053847197,0.14234796,0.2180872,0.1264536,-0.013034217,-0.033392057,0.010808705,0.053279053,0.024170779,-0.18084815,-0.21594329,-0.33583063,-0.45638376,-0.15503293,-0.07729285,0.011302763,-0.05410344,-0.14986235,-0.42140645,0.13916959,0.01570325,-0.0015717795,-0.1953283,-0.3734087,-0.07995322,-0.117871515,0.039049886,0.08681956,0.09080388,0.050706834,0.046754908,0.20193356,0.0568787,0.085460335,-0.056087285,-0.027083043,-0.08831516,-0.12644288,-0.11872424,-0.16243632,-0.07150618,-0.20783664,-0.16821302,-0.18600483,-0.031230092,-0.11509702,-0.040555228,-0.10228824,-0.24899451,0.15691094,0.084393956,0.0799357,0.04143475,-0.026533961,0.10661874,-0.15774952,-0.33215326,-0.34014377,-0.15282787,-0.040660612,-0.1676978,-0.30131015,-0.14842422,-0.16485609,0.07589533,-0.004100882,0.1208266,-0.045719933,-0.020304672,0.0011344147,-0.029648691,0.020402,-0.011992728,0.17330499,0.025127513,-0.019585406,0.02716372,-0.011638023,-0.2326857,-0.105361424,0.011910762,-0.07359312,-0.119445406,-0.2747905,0.15920821,0.06267843,-0.06311884,-0.20100553,-0.06367224,0.20089577,0.21841323,0.045573674,0.042275015,-0.017690392,-0.014618155,0.09772793,-0.05288945,0.13342892,0.06937414,-0.10412199,0.0040745726,0.13204925,0.172745,0.16282,-0.067817815,0.08536567,0.09597956,0.08480474,0.2207106,-0.15386738,-0.10258886,-0.21742494,-0.1747628,0.0015452529,-0.069034494,-0.035445977,-0.17497802,-0.19006868,-0.19043745,-0.030740848,-0.06726998,-0.011977712,-0.10229563,-0.19908999,-0.10006654,-0.012468297,-0.24667768,-0.11569988,-0.18620588,-0.15699977,0.007858527,0.19703735,-0.08284428,-0.2306074,0.16280745,0.43183267,0.44631737,0.4444392,0.020457977,-0.08215357,0.057756316,0.041611362,0.2256945,0.047100447,-0.047416463,0.004048949,0.088930815,0.22162676,0.063120656,0.10503377,-0.03074684,-0.09841302,-0.07282159,-0.049334805,-0.09854978,-0.008800482,0.2796741,0.34482077,0.13464394,-0.04898523,0.031030474,0.3610688,0.18723232,-0.054432843,-0.0013803482,-0.22831862,-0.06332541,-0.3228888,-0.091110036,0.04785124,-0.06598632,-0.11051407,-0.19570123,-0.007851869,0.09086126,0.04346829,-0.08538954,-0.15884264,-0.20595059,-0.01840161,-0.050330352,-0.070443936,0.0437167,0.05195711,-0.06936861,0.0059191105,0.17184307,0.3570986,0.12323807,0.13682595,-0.0041813646,0.017720437,0.09036842,-0.100475125,0.095959194,-0.07339606,-0.024786256,-0.24276447,-0.2348694,0.05089717,0.0872746,0.22212619,0.02273696,0.061388675,0.016539145,0.2906412,0.27536836,0.042256877,-0.092476845,0.11869635,-0.0060732756,-0.22742634,-0.51910037,-0.12954697,-0.059774637,-0.16610663,-0.42809868,-0.2127856,0.20431332,-0.17891525,-0.13411272,-0.026349142,0.014272088,0.14615485,-0.17669643,-0.02602334,0.12722461,-0.066729695,-0.13056773,-0.15287097,-0.07323966,0.0059626866,-0.03376865,-0.15551792,-0.006773962,-0.10147414,-0.2083691,-0.18526208,-0.083938256,0.06514468,-0.16205136,-0.021284258,0.0009280879,0.012129977,0.11024987,0.06072908,0.18515697,0.1715166,0.0062634367,0.0463399,-0.14635564,-0.1857132,-0.16615202,-0.088631906,-0.12507658,-0.00018605229,0.12091284,0.17669776,0.19941625,0.00084811833,0.034172364,0.1851495,0.088913955,-0.016553627,-0.030902198,-0.056059524,-0.15485883,-0.16335519,0.048692916,0.04948227,-0.0055427756,-0.2664447,-0.013297676,0.033703186,-0.009390197,-0.14090113,-0.088707365,0.05027539,-0.007784521,-0.09719655,-0.33099878,-0.39883554,-0.24993114,0.005837226,0.08126023,-0.16172238,-0.07609214,0.16716728,0.14727938,0.28389484,0.23239593,0.3357246,0.2723383,-0.19137566,0.20556784,0.17384289,0.17109147,0.09978362,-0.07333044,-0.09988302,-0.14078209,-0.035686303,0.16521603,0.29462972,-0.08201129,-0.054094084,0.1432616,0.117681,-0.0039922544,0.09225989,0.078397796,-0.14938517,-0.2057886,-0.24729845,-0.42496535,-0.4064659,-0.40224284,-0.18683213,0.07155709,-0.08284602,0.21448337,0.15108745,0.0680852,-0.14367369,0.11255057,0.014294124,0.16477354,0.17180896,0.26160014,-0.1247717,0.0026546523,0.05269592,0.30500874,0.35524082,-0.110567346,0.19224155,0.22662061,0.13376059,0.10545575,-0.01911161,-0.01616313,-0.17044267,-0.21710227,-0.16508654,-0.41291106,-0.24434009,-0.16763003,-0.023314433,0.041676,-0.13643849,0.045626283,0.011360641,0.0077610267,-0.06888742,-0.027788948,0.15304048,-0.064858854,-0.32001486,-0.31569266,-0.118264765,-0.31394842,-0.54313487,-0.40308422,-0.11675741,-0.07149508,-0.19010209,-0.09258959,0.1532448,0.04449116,0.2331184,0.33514717,0.2295977,-0.04995331,-0.22998317,0.014064817,-0.24016555,-0.12453218,-0.17642415,-0.2594436,0.0144242225,-0.106600665,-0.2349514,-0.08689322,-0.25451684,-0.008775554,-0.06494128,-0.16460833,0.02736002,-0.1094726,0.0057382593,0.18990791,0.15430896,-0.036836542,-0.10141591,0.10034857,0.27066657,0.19897933,0.1457661,-0.054404367,-0.071391486,0.043979622,-0.016013907,0.09294488,0.38356897,0.010195381,0.13049375,0.061827708,0.18403599,0.2644859,0.09716824,0.042151295,-0.06860621,0.05932462,-0.18724054,-0.2455839,-0.3331891,-0.26086,-0.061156973,-0.08291094,-0.18125394,0.04299319,-0.100140974,0.06502798,-0.14799637,0.17081651,-0.04467393,-0.060491484,-0.20858023,-0.2330287,-0.16781542,0.008683515,-0.1119657,-0.022643257,0.3256737,-0.05645541,0.25907496,0.30498168,0.22469552,0.0007477484,0.3365314,0.21732785,0.07217248,0.029782666,-0.13007027,-0.22394274,-0.19489945,-0.046086412,0.113024734,0.29735833,-0.0415916,0.11755327,0.069063805,-0.09074313,-0.13957998,0.055600446,-0.013549936,-0.0052581285,0.0611767,0.30180708,-0.03223074,-0.13145936,0.07715298,0.50979286,-0.17917389,0.002957057,-0.2558235,0.28444734,0.373913,-0.28106144,-0.099987276,-0.08843266,0.41739658,0.11430443,-0.08474615,-0.10615088,-0.04816043,-0.13083781,-0.019816624,-0.07158104,-0.04195055,0.13552126,-0.05195415,0.076906405,-0.093036786,-0.048250522,-0.015215986,-0.13991742,0.24346747,-0.024930155,0.03818678,-0.10028977,-0.104748115,0.4928502,-0.16725414,0.10593922,-0.105225705,0.12927419,0.39343593,-0.2585261,0.20372508,0.21273229,0.075668894,0.19452626,0.19153188,-0.12527469,-0.058310274,0.046378523,0.14723253,0.0050584087,-0.22311753,-0.087813,0.28497633,-0.17989142,-0.33850068,-0.13859761,0.2388048,0.36928794,-0.5488155,-0.20904273,-0.037311625,0.37175465,-0.010896734,-0.38213462,0.2766519,0.049109086,-0.051407464,0.04577222,0.018315548,0.11687103,-0.20498906,-0.1742126,-0.08970666,-0.1995385,-0.050563082,-0.26745623,-0.191338,-0.4026066,-0.23259214,-0.16833895,-0.2875281,-0.156387,-0.45568198,-0.32046077,-0.1372693,-0.17285532,-0.4067003,-0.45633742,-0.18896253,-0.023555217,-0.015266305,-0.06466861,-0.15611292,-0.13610363,-0.15558682,0.041678,-0.06608186,-0.111021094,0.097153015,0.064811446,-0.111431554,-0.045423396,-0.0879352,-0.03959262,-0.084538065,-0.17885576,-0.03369373,0.16862415,-0.09535786,-0.081149645,-0.029265,0.064185716,0.0053582643,-0.09738253,-0.09465353,-0.1726166,-0.1250288,0.030991655,0.003616837,-0.017856177,0.07430389,0.012838217,-0.25213718,-0.23267804,-0.11178326,0.08893802,-0.1123601,-0.55918896,0.24545291,0.38417876,0.17096975,-0.21873927,-0.20103069,0.3068607,0.20150949,0.0790514,-0.38344702,-0.13682513,0.18283041,0.008527255,0.095490225,0.06682274,0.2713955,0.2169586,0.38294637,-0.07277218,-0.1591071,-0.08606092,-0.20712635,-0.3777814,0.16055794,0.010122703,-0.00070456177,-0.25500095,-0.1323249,0.28785098,0.16358495,-0.025310036,-0.28562358,-0.056825683,0.257782,0.26008743,0.130144,0.003062841,0.08157776,-0.017302932,0.17414325,0.2902579,0.1916739,0.09513664,-0.11146047,0.0275213,0.097710006,0.14144647,0.040595964,0.017768146,-0.013778479,-0.049149927,-0.15920629,-0.1834594,0.045839723,0.1343611,-0.054951232,-0.31828535,-0.1750638,0.18170223,0.21712366,0.094010524,-0.09775227,-0.012639088,-0.086413465,-0.18443654,-0.05725705,-0.024276044,-0.035183676,0.03818416,0.017685339,-0.0782104,-0.21374862,-0.15604511,0.086249135,0.26474312,-0.15932988,-0.0027426193,0.17936793,0.26383188,0.11342437,-0.19998538,0.12408765,0.32347903,-0.19220352,-0.18398908,-0.059960473,0.28377643,0.091124,-0.18883193,-0.22336319,-0.08585352,-0.16503781,-0.12769613,0.07106639,-0.06152017,0.00398084,0.067228906,-0.10812239,0.18303986,0.19033924,0.08901444,0.2675605,0.14811182,0.09151873,0.05999947,0.16865478,0.1694378,0.20131128,-0.019154847,-0.006894132,0.15027489,0.19237158,0.062456694,0.23274407,0.17715718,0.2639569,0.3490103,0.24024221,-0.056887258,-0.07949252,0.064619064,-0.056013055,-0.07391277,0.031107929,-0.04137963,-0.07062786,-0.077091396,-0.07207851,0.09345803,0.15173416,-0.1205966,0.04740216,0.08393273,0.32431012,0.19776069,0.059805203,0.06214385,0.058309946,-0.06607182,-0.11992391,-0.0030467315,-0.15156579,-0.31297025,0.35329193,0.14753991,0.3624041,0.60835075,0.24672215,0.05355521,0.0553834,0.20991781,0.1097086,-0.2379051,-0.33815935,0.03976048,0.11158122,-0.036539294,-0.15337841,-0.104584485,-0.063551314,-0.124627374,-0.13503185,-0.018368075,0.034514368,0.03766458,0.010714297,0.09288679,0.14105421,-0.048462655,-0.0125024505,0.09235259,-0.035582863,-0.06302093,0.11937566,-0.015397864,0.055606086,-0.28331256,-0.49601704,0.060180627,-0.10457964,0.10427279,-0.012058327,0.015329374,0.01691843,0.050569553,0.16609487,0.108342946,0.07686717,0.1170346,0.10645999,0.040383447,-0.10089165,0.13103136,0.059131328,-0.060721412,0.10528498,0.009091844,-0.0030771445,0.022386115,0.039027557,0.07779043,-0.0029535785,-0.167284,0.15362357,0.072908066,-0.038901802,-0.11966988,-0.4368012,-0.0014080488,0.04324622,0.047429424,0.20770843,-0.05959254,0.022549648,-0.07241691,0.017442087,0.09479536,0.049302496,-0.08273354,0.18321472,-0.066546105,-0.28402755,-0.11240933,-0.08995679,0.18968835,-0.17017992,-0.26102573,0.10596043,-0.17963667,0.10181327,0.14894918,0.2053983,0.37954465,0.084676206,0.19600236,-0.12712401,-0.17708574,0.06535829,-0.018982977,0.1402595,0.08721009,-0.1582041,-0.027088309,0.16121738,-0.06728364,-0.15138528,-0.043457255,-0.12647034,0.05809712,-0.0045565534,-0.1481964,0.04987263,0.17107819,0.004911924,0.02937847,0.029107109,0.206631,0.15263358,0.121814474,-0.16846272,-0.09762761,0.03562953,0.023853406,-0.049209036,-0.07178241,-0.048804797,-0.086152375,-0.058336824,-0.08396388,-0.0060195206,0.023367003,-0.020133678,-0.009361628,0.062316548,-0.038774643,-0.12299595,-0.3681231,-0.36659056,0.018444398,-0.014552102,0.033310916,-0.12816888,-0.21659225,0.03572499,0.063256785,0.2559117,0.2609865,0.120775335,0.108410686,0.09049304,0.00025746197,0.00917184,-0.17789766,0.033630542,-0.122515336,0.17555556,0.26469266,-0.104644805,0.032079235,-0.02217153,0.2268873,0.42465872,0.13022555,0.118051596,-0.22240733,-0.09875689,-0.05298835,-0.19771163,-0.139104,-0.14825569,-0.14209971,-0.0296906,-0.030612726,0.04819687,0.12482266,-0.0544595,-0.2162228,-0.27900964,0.09162726,0.072781876,-0.04968218,-0.15667863,0.025762966,0.14268394,0.11301211,0.28463522,0.46595454,0.27736387,0.025198542,0.13614307,0.052322112,-0.049098983,-0.14649169,0.116272084,-0.028362412,-0.06288156,-0.220617,-0.0550425,0.04572369,0.09649005,0.0047314614,0.10248235,0.09225365,0.05910907,0.03967159,0.08586435,-0.06653215,-0.22250514,0.11716209,0.060142085,-0.068463415,0.19810414,0.30663264,0.15628356,0.08010763,0.14506565,0.39988735,0.20859882,0.16986354,0.067005664,0.1108618,-0.02911966,-0.20474993,0.08870924,-0.07776513,-0.1285509,-0.1620652,0.0038980374,-0.010764977,-0.037319824,0.102740645,0.107439354,0.29293707,-0.15988226,0.04277866,0.29868138,0.09075729,-0.17983434,-0.13857818,-0.1514578,-0.26101038,-0.53860563,-0.2912694,-0.12971519,-0.19317125,-0.24383087,0.013610459,0.1512383,0.007947707,0.04447536,-0.15817603,-0.0032854497,-0.07943585,0.018615467,0.028012836,-0.087677754,0.14459023,-0.0070231827,0.15888031,-0.016808083,-0.16279763,-0.11899855,-0.16821076,0.13365602,0.045547977,-0.16341084,-0.069316715,0.019442067,0.05354303,0.10483439,0.078368135,0.062262647,0.16418329,-0.0067854133,-0.08859908,-0.045748483,-0.22035073,-0.35691217,0.080716945,-0.12413402,-0.21293154,-0.22377418,-0.17827798,0.0790454,-0.057814833,-0.04872666,0.057367403,0.18629462,0.11126675,0.087880105,0.06257218,0.008464359,-0.20052989,-0.042876124,0.028550515,-0.18592441,-0.22670846,-0.10389027,-0.060410533,0.030225035,0.1208109,0.16583218,0.033264298,-0.13483123,-0.062888525,-0.04962296,-0.13900807,-0.29763782,-0.12609382,-0.16783361,-0.38340595,-0.24865559,0.100890175,-0.051268775,-0.009486436,0.28773922,0.40490136,0.37215275,0.013615136,0.048833955,0.15670036,-0.051368147,-0.23765366,-0.1937997,0.11838931,0.09926175,-0.01750968,-0.131964,-0.11900601,0.08667686,0.22325915,0.10973261,0.043105483,-0.29032102,-0.19068731,-0.28774154,-0.26664504,-0.20987855,-0.15271433,-0.19692278,-0.008500061,-0.019166779,0.107495606,0.09608884,0.14988977,0.28161132,0.14019594,-0.092964545,0.03308789,0.17743307,0.22775288,0.050023235,-0.02813363,-0.089050576,0.0047728783,0.19583564,0.04079132,0.10785409,-0.034651324,-0.0541178,-0.0068518487,0.016246919,-0.10143472,-0.24272476,-0.17183726,-0.23194891,-0.22427885,-0.05719235,-0.1319628,-0.14952418,-0.07519178,0.032534536,0.16832127,-0.059493124,-0.0037374827,-0.20843022,-0.16202267,0.10684156,0.037177853,-0.05645746,-0.24786039,-0.03119685,-0.022183942,-0.1827642,-0.2624084,-0.1840121,-0.20591883,-0.12707978,-0.0057931873,0.13497056,0.2910025,0.27201277,0.11192326,0.030603912,0.33192033,0.18157662,-0.24057166,-0.20618303,-0.08731701,-0.13501655,-0.058722712,-0.028034834,0.046362974,-0.03839302,-0.13069832,-0.15282041,-0.12787849,0.017451461,0.004189572,0.021077598,-0.032796793,0.03539769,-0.023803962,0.2006789,0.11092302,0.03389184,0.08999553,0.1910997,-0.021330722,-0.030509526,0.075359866,0.09659489,0.11808091,0.14275838,0.18946041,0.062514216,-0.116997495,-0.14572784,0.09312315,0.045832675,0.14514145,0.05902051,0.029794697,-0.082410656,-0.17780599,-0.07749871,-0.10619161,-0.24008603,-0.13125244,-0.21457343,-0.24447459,-0.13415344,-0.020768093,-0.03936471,-0.024461351,0.22473407,0.202897,0.103528924,0.06459225,0.06506422,0.015423077,0.1683814,0.012839972,-0.049281597,-0.07798273,0.003387991,0.02423386,0.168288,0.32973656,0.33587128,0.33197853,0.2509481,0.21372251,0.07647145,-0.15664224,-0.14606202,-0.07062013,-0.084746145,-0.2193013,-0.33750397,-0.17078738,0.23700443,0.15433429,-0.036132555,-0.035438575,0.2162409,-0.04010085,-0.011890024,-0.09931603,0.17830878,0.26868224,-0.20931266,-0.19879355,0.19439724,0.14456066,-0.2291753,-0.52423644,0.006367489,-0.20471874,-0.3114592,-0.17157778,-0.24156816,0.096173406,-0.28735143,-0.17585008,0.005824893,-0.18286677,-0.20181556,0.13638794,0.20277609,0.20227292,0.093321696,-0.073362395,0.017313477,0.11442069,0.17199095,0.12471883,-0.038131405,0.045399122,0.18966836,0.18641955,-0.106144994,-0.30098712,0.09136938,0.059160788,-0.114635535,-0.18661578,-0.059752792,-0.027490923,-0.095344394,-0.09025488,0.08826233,-0.027990825,-0.16105796,-0.058095638,-0.18528508,-0.10276949,0.12984812,0.18017738,0.0056575495,-0.3452748,-0.17841901,0.32662925,-0.017066117,-0.44248697,-0.42355323,0.11075072,0.3680369,-0.43059698,-0.22233966,0.0921206,0.25109255,0.06947943,-0.038361933,0.07786294,0.0878392,-0.11975406,-0.019793613,0.031090375,-0.032010876,-0.063455574,0.09583569,0.100914404,0.07538413,-0.10918316,-0.012041344,0.10646317,0.022073183,-0.02200872,-0.02938416,0.16440025,0.21302827,0.040217467,0.16880518,0.10157412,0.29281637,0.27772862,0.023551486,0.3020016,0.1414445,0.26816195,0.26172745,0.13467488,0.118064195,0.13367438,0.1457374,0.07492244,-0.061545514,0.07993397,0.13998488,0.20586263,0.007153225,-0.06305684,0.12344548,0.019535415,-0.17793426,-0.067585364,0.05096633,0.046250317,-0.21026355,-0.31733462,-0.053547647,0.14660299,-0.21334209,-0.21721643,-0.15666993,0.0006380816,-0.14086431,-0.11379401,-0.009319675,0.10432054,0.16680515,-0.21539615,-0.1744445,-0.06768547,0.22988002,0.14390899,-0.19924188,-0.00049730483,0.32979038,0.44877356,-0.028775433,-0.4311962,0.49611628,0.1869858,0.089467466,-0.1218707,-0.1957304,0.046226166,-0.04981601,-0.095108435,0.15140194,0.16901682};
float Conv2_bias[] = {0.10160567,0.096454985,-0.1277274,-0.1619677,-0.038320426,-0.034155216,0.07959651,-0.09037884,0.0076268497,-0.07289201,-0.107930526,0.038543005,0.07178795,0.26617938,-0.054760918,0.03484952};
float Dense1_weights[] = {0.08343525,0.10815262,-0.0023846817,0.08741472,-0.03363252,0.2960962,-0.22010487,0.14680693,0.01696444,0.0343961,0.0328427,0.06098135,-0.034723263,-0.022050528,0.0089078145,0.20927525,-0.0498823,0.17710257,0.048301306,0.044612754,0.10629947,-0.20536707,0.040611356,-0.16528358,0.04787258,-0.1930136,0.06294488,0.18075152,0.10335471,-0.07722341,0.04679905,0.000873603,-0.021202344,-0.06454349,-0.12487923,-0.015714236,-0.043650545,-0.069862396,0.08857806,0.10253601,0.06876414,-0.095683075,-0.08489186,0.017483946,0.11731134,0.18851463,0.031910554,-0.023101266,0.06872478,0.18640527,-0.069879845,0.007195075,-0.06878404,0.1138661,0.12279048,-0.031999156,0.09644544,-0.19623458,0.10795786,0.17312467,-0.055674516,0.33850688,-0.067390166,0.005862885,-0.08550635,-0.1577469,0.08837522,-0.005503315,0.12358847,0.0001922356,-0.0663664,-0.13721946,0.12889542,0.12392917,-0.061289486,-0.028290335,-0.007812401,0.005318314,0.29166096,0.14472741,0.17407867,0.1482027,0.13120371,0.034188066,0.15156583,-0.10718951,0.075142965,0.005278935,0.11564539,-0.026953105,0.06683828,-0.10881332,-0.055323914,0.047577634,0.049804773,-0.01558602,0.06249467,-0.17372878,-0.07251672,0.030304374,-0.008623859,0.0279469,-0.1655396,-0.20048232,0.053340625,0.042805217,0.06159352,-0.034164153,-0.14462319,-0.014924276,-0.06555532,0.13486968,-0.11536061,0.2127345,0.12903194,-0.21454453,-0.15204518,-0.10849141,-0.014924632,0.22079045,-0.01220071,0.0076789293,-0.023843747,-0.24352586,-0.15801823,0.26176634,-0.0068609104,-0.022467792,0.015749186,0.0118278,0.016010107,-0.022476288,-0.17637195,-0.0130712725,-0.08434725,0.08748165,0.031152608,0.047741503,0.093686596,-0.10759404,-0.016510656,-0.13776423,0.07324954,0.16090406,0.15874505,-0.14659229,-0.0597457,0.012718093,0.14242277,0.002771253,0.012577234,0.023690028,0.055267304,0.20144121,-0.037339572,-0.106901474,-0.05434102,0.26000005,0.28311822,-0.02989597,-0.06875303,0.05551985,0.054712776,0.3793037,0.11376097,0.056334235,-0.20384091,-0.13396938,0.11853974,-0.0921989,-0.15829684,0.24876615,-0.07397172,-0.026680427,0.154444,-0.11264059,0.014264481,-0.26239783,0.012885237,-0.09828612,0.071555436,0.041389395,0.02133469,-0.018246632,-0.033214815,-0.1122686,-0.1431157,0.16175465,0.16061743,-0.20537497,-0.1219024,-0.16571961,0.15275308,0.23226194,-0.15331014,0.052410044,-0.031423148,0.08021215,0.008895676,0.13450462,0.14157364,0.15631416,-0.03944539,0.012655918,0.073817715,-0.05009409,0.12667525,0.028273633,0.15105787,-0.11538017,-0.08657757,-0.17846039,-0.009038121,-0.0026899078,0.015770784,-0.07236985,-0.00024200858,0.11971275,0.005816967,-0.008032693,0.11728904,-0.04352901,-0.11753859,-0.049576417,0.056590006,-0.1596873,-0.010592379,-0.09058309,-0.016310245,-0.060710076,0.0867041,0.18378326,0.031907365,0.36777425,0.07020491,-0.09549944,-0.113082014,-0.059848506,-0.022918066,0.24735987,-0.14725134,0.012630741,0.022354083,0.09947707,0.13950424,-0.22430757,-0.07086271,0.12940316,-0.09289353,-0.056465376,0.0207651,-0.108669326,-0.014840652,0.14635424,0.16091014,-0.10326362,0.11829559,-0.15048799,-0.081718326,-0.08049135,-0.055286046,0.034025252,0.044971492,-0.034358166,-0.047213204,0.07095471,0.042203806,-0.06471141,-0.017059928,0.10744023,0.030362526,0.018706037,-0.0893356,0.0067347796,0.017958948,0.04140424,0.18804821,-0.20202483,-0.09053055,-0.09640063,0.044113908,-0.07523207,-0.051946383,-0.21414098,-0.0843321,-0.01667774,0.0009169262,-0.030777477,0.11330315,0.028083364,0.14178246,-0.19371983,-0.015986484,0.055322707,-0.06609069,0.022624802,0.009856772,0.21366902,-0.11624213,-0.0011778317,0.07680281,0.05688885,-0.19766934,-0.1538432,-0.020427525,0.19022,-0.0590542,-0.10718619,0.002864508,-0.07533943,0.043538243,-0.0048006903,-0.07183203,-0.17440407,0.1326298,-0.045196857,0.037167888,0.11352693,-0.1096472,-0.03596863,-0.11162139,-0.14004181,-0.033293355,0.098669395,-0.07031373,-0.08316615,-0.09034513,0.09717231,-0.059271183,-0.03977448,-0.039650492,-0.029634122,0.021630244,0.06923302,0.05089347,0.13486248,0.008071022,0.028855607,-0.015722493,0.048673306,-0.118675135,0.020947477,0.12904844,0.21964903,-0.08995165,0.09712107,-0.04290907,-0.085017875,-0.10979579,-0.11413664,0.033818293,-0.019528808,0.07406569,-0.16226323,-0.07676304,0.068821035,0.134438,0.050121296,-0.16432711,-0.20778619,0.11976254,-0.07880882,0.026341612,0.1707769,0.059357673,-0.08532213,-0.0041677803,0.10000216,0.108214736,0.10610901,0.01811711,-0.21048287,0.019265596,0.039938584,0.06544001,-0.029081853,-0.040476102,0.09644488,-0.07558997,-0.016959395,-0.015377364,0.15749808,0.009992635,0.02345478,-0.08706049,0.00631353,-0.06903228,0.06479513,0.045753032,-0.036322206,-0.17248218,0.02921882,0.16250986,-0.16744956,-0.16293986,-0.108800516,0.11359734,-0.31192183,0.04158021,-0.08859036,0.022819621,0.02614744,-0.18547302,-0.15291205,0.037401456,0.07879216,-0.10580256,0.042473532,-0.034873463,0.21786565,-0.030978495,-0.10552318,-0.13028143,0.02201977,-0.1663973,0.14289299,0.0008853664,0.20677938,-0.18923876,-0.09051669,0.04937302,0.10009351,-0.010435845,0.09069479,0.0086117005,0.021469187,0.10282483,-0.043564092,0.06710782,0.13799775,0.093962796,0.07810562,-0.17286226,0.009307374,0.17602083,-0.06533462,-0.07542268,-0.19230783,-0.010251524,-0.17761324,0.07580544,-0.11139706,-0.09270829,-0.051049992,0.036222074,-0.083442636,0.16484182,0.098485276,-0.015397274,-0.052310817,0.034219183,-0.013634245,-0.12207578,-0.034379985,-0.0655987,0.025397234,0.071474545,-0.10871877,0.077042185,-0.07524616,-0.07625391,0.0068469956,-0.019735545,0.09505983,0.056401785,-0.058104765,-0.061128847,-0.20834136,0.022532286,0.03300007,0.026061151,0.0141974,-0.0076623717,-0.23019247,0.005452943,-0.09366642,-0.022574058,0.056539036,-0.029618252,0.0495965,0.08480291,0.09771884,-0.14487447,0.23028441,0.1464431,-0.062224157,-0.0653013,0.08092283,0.0607095,0.039413285,-0.18877941,-0.16386108,0.03997507,0.02572091,0.0778423,0.030304078,0.09217162,0.06581701,-0.22880156,0.20770685,-0.16316567,-0.019626394,0.056038603,-0.108652435,-0.061196394,0.071861275,-0.15476419,-0.14376283,0.17373021,-0.010603143,-0.18211468,0.0539806,0.03907815,-0.09506186,-0.11218869,-0.15833183,0.0075943107,-0.23655939,0.103939965,0.020284347,0.06899292,-0.05356666,-0.10449307,-0.08697678,0.111298755,0.100577906,-0.11154873,-0.15697742,0.013495563,0.22092806,-0.04241736,-0.0877822,-0.17284198,0.021066543,-0.15415992,0.024856986,0.13963468,-0.01497331,-0.111943565,-0.13820729,-0.087402076,0.11961301,0.08172392,0.07762254,0.033295117,-0.032894038,-0.015081698,0.035350516,0.20179163,0.09930074,0.09417893,-0.09312398,-0.16726097,-0.020051416,0.16216163,0.016473027,0.0046400055,-0.12327635,0.122339025,-0.14431943,0.13948205,0.09025689,-0.09830561,0.057145275,0.29566303,-0.08977553,0.13766284,-0.16650988,0.100380525,-0.06539071,0.011620602,-0.064507715,-0.096013986,0.010706245,0.07180575,0.14820158,-0.14052184,-0.048407592,0.030402493,-0.12788478,-0.07994969,0.1502,0.029867899,-0.12943453,0.058006443,-0.02884462,0.036240056,-0.15277761,0.06610993,0.013612429,-0.12363185,0.040869746,-0.063205756,0.036737543,0.14038174,-0.011289135,-0.022819508,0.025465641,-0.11030448,0.044338115,0.08033141,0.04614771,0.053562663,-0.090949714,-0.02964673,-0.022615148,-0.045462977,0.07012384,-0.073757045,0.17024495,-0.048387375,0.0059656324,0.06293295,-0.10189077,0.09205587,0.083057486,0.24850938,0.011941565,-0.12397864,-0.09882697,0.001109085,-0.06627557,-0.20685893,0.1937261,0.041124262,0.00760509,-0.031961244,0.09001856,0.103712894,0.0689813,-0.16712828,0.181245,-0.16621596,0.14805801,0.042893678,0.043568984,0.05502367,0.03681353,0.09653579,-0.020924626,-0.011079081,-0.19697566,-0.1336723,0.024220929,-0.061105873,0.21245113,-0.11002254,0.024541607,0.063926935,0.11463228,-0.16425662,0.06384607,-0.0070836097,0.11808066,0.041617632,0.041285213,-0.07567411,-0.17356078,-0.103188656,-0.089379825,0.11994193,0.071751036,-0.06339986,-0.13277213,-0.11907305,0.104071274,-0.042013623,0.029117668,-0.017879106,-0.03280272,-0.10195239,-0.10243256,0.0088397935,0.10194986,-0.032234546,-0.17053111,-0.04947394,0.008558495,0.051724903,-0.13927688,0.02702414,0.09020435,0.09118902,0.09261924,0.057077758,-0.14015575,-0.12348932,-0.00355422,-0.055667117,-0.025601737,-0.06624516,-0.023276001,-0.03295308,0.11522496,-0.065663524,0.16236082,-0.058419522,-0.14744516,-0.21283409,0.030654106,-0.1869105,0.023828676,0.07732207,0.121320404,-0.066435345,-0.11342918,0.014639665,-0.085691735,-0.1073661,-0.017578391,0.037703037,0.120068654,0.22852345,0.08712903,-0.06466167,0.09742619,-0.002569843,-0.060575157,-0.083461925,0.006867889,-0.012540495,0.008351254,-0.0799895,-0.09881796,-0.1266116,0.08879756,-0.0998415,0.0057210177,-0.112856634,0.12094979,0.13349031,0.10193778,0.010032281,0.03742266,-0.023824137,0.02014793,0.23433612,-0.0064887246,0.08018383,0.066420965,0.04553225,-0.14195365,0.05776439,0.013480636,0.06195814,-0.06451903,0.060260393,0.043481156,-0.027148433,0.040882602,0.052204624,0.13708913,0.07646954,0.059231397,0.056805603,0.027401583,-0.04900217,-0.008973568,0.090309985,0.07274333,0.03032564,-0.053153247,0.14622173,0.100763224,-0.11764365,0.009020831,0.0022326002,0.008490572,-0.051798247,-0.07138004,-0.12536399,-0.123786196,-0.011208644,0.08240024,0.0003007487,-0.094092146,0.14976212,-0.20616207,0.08672092,0.1915258,-0.19176832,0.25875923,0.08155661,0.07142421,-0.031115547,-0.12500262,0.079826474,-0.050205894,0.1149219,-0.10610718,-0.0044932696,-0.17288505,0.05330391,0.09534311,-0.2276101,0.00045401807,0.11437728,-0.013312305,0.15113632,0.073637016,0.092854284,-0.13797638,0.06306879,-0.048005156,0.1342931,-0.10959668,0.007993072,-0.079247065,0.0059968918,-0.05215997,0.19223167,0.08775562,-0.011884534,-0.092478596,0.0356858,0.041938517,0.13382792,-0.088027045,-0.21361893,0.027382921,0.06983439,0.021742422,0.12345589,-0.053889498,-0.0003407673,0.13476078,0.019796912,0.122908846,0.020472186,-0.007505921,-0.0837534,0.0997218,-0.10835638,0.17220548,0.09847817,-0.05965976,-0.061259698,-0.18801358,0.075064324,0.10420373,-0.13059388,-0.038266804,-0.0026039516,0.031613525,-0.058187284,0.00942826,0.086585864,0.03635093,-0.027908081,-0.14373809,-0.13889578,-0.029429428,-0.012821156,0.14552431,-0.023998063,-0.0162102,-0.040715624,-0.07202747,0.044382203,-0.031912424,-0.072689146,0.31122434,0.122866206,0.006380525,-0.19053264,-0.019263491,-0.056651592,-0.15855522,0.06931786,-0.032100394,0.054704078,-0.2238281,0.10197461,-0.05352091,-0.011904461,-0.027656514,-0.09518691,-0.12002108,-0.0772998,-0.079768054,-0.083239555,0.133207,-0.010277568,-0.026033472,-0.097716205,-0.031622425,-0.11397418,-0.00014615624,0.05961182,-0.15174569,0.20544586,-0.09924794,-0.05537938,0.054439798,-0.19944192,0.053407922,-0.082637094,0.088039875,0.08724875,-0.16507113,-0.1387831,-0.14710347,0.014958299,-0.07064993,-0.011494378,-0.085156694,-0.041011956,0.0010053996,-0.10079293,-0.042869054,0.09483953,0.11728185,-0.06458571,-0.121281385,0.10847951,0.22385566,-0.01104544,0.017532099,-0.12492548,-0.121339664,0.008421439,0.010503979,-0.016854715,0.062896825,-0.17453836,0.10120561,-0.046971496,-0.03586025,-0.026424127,-0.017362367,-0.020206556,-0.0141996555,0.04722541,-0.12853235,-0.02834118,-0.026403492,0.04646633,0.045117393,-0.009614936,-0.03876845,0.064192116,0.1445601,0.021795077,0.1417117,0.23541297,0.102196686,0.014653759,0.035965208,-0.05603288,0.09003414,-0.17489235,-0.03377613,-0.101353675,-0.17857118,0.11146083,0.12434967,0.14233187,0.11177492,-0.022263484,-0.05875553,-0.16161467,0.11386183,0.042643752,0.1923502,-0.065705925,-0.017145548,-0.06428989,0.07341252,0.043354627,-0.08943682,-0.12419262,-0.15336302,0.02274373,-0.05897488,-0.0053954334,-0.103834406,-0.13322234,0.020786066,-0.13868469,0.015764156,-0.13428651,0.0007842666,-0.10762231,-0.0595766,-0.04809901,0.11979798,0.009578231,0.010339703,-0.043937925,-0.09933615,0.014917574,-0.0141543,-0.05179261,-0.055760074,-0.19294399,-0.041049846,0.0054690964,-0.12838002,-0.044342645,-0.020696381,0.10370854,0.030062437,0.008124478,-0.062881425,0.067412496,-0.13265741,-0.25170836,-0.02002474,0.030170273,0.12955971,-0.067512974,0.047589947,-0.16935839,-0.0042659803,-0.117427975,-0.07233955,-0.09381245,0.12636793,-0.060118664,0.16275834,-0.07239253,-0.020506494,0.107661024,0.025508894,0.03544404,0.106413044,-0.056409057,-0.11551592,0.14197294,-0.04225502,0.16465677,-0.078133196,-0.08522303,-0.02241221,0.21822946,-0.032625254,0.07253962,-0.0500799,0.038950223,-0.09051025,-0.020080207,0.08622656,0.016712252,-0.05987185,0.02079997,-0.029970609,-0.010736182,-0.15395667,0.12346586,0.04392101,0.06435885,-0.0077548525,-0.04507425,-0.17148992,0.1384272,0.07640726,-0.07749113,-0.018216623,0.07225938,-0.11950519,-0.12399547,0.06529089,-0.011721212,-0.15811773,0.0018128591,0.09908156,0.07927703,-0.12995456,-0.13058016,0.030836586,-0.12347543,0.09915768,0.029711852,0.0142696295,-0.028458875,0.10106363,0.06507779,0.113221265,-0.06447003,-0.1863439,0.04444596,-0.06963725,0.14990078,0.18535955,0.03079992,-0.08605215,-0.121611804,0.13041689,0.15696284,0.048709773,-0.23469113,-0.22596733,0.20969462,0.13465238,0.048031848,-0.08293928,-0.25546226,0.04452483,0.045438923,0.106962085,-0.19622499,0.14206667,0.010782617,-0.23403554,-0.020183915,0.07436462,-0.10828375,0.2134366,0.089982055,0.041574437,0.06281171,-0.20651421,0.081623375,-0.10260252,-0.14217964,0.031784855,0.13673975,-0.25181368,-0.106017224,-0.07404345,0.070768915,-0.0004581265,-0.1641923,-0.11391034,0.071734644,0.102309674,-0.020776834,-0.054725524,0.027921038,0.16411129,0.014539238,-0.07923301,-0.19608098,0.15699156,-0.21258505,0.062906414,0.007922519,0.014387395,0.18364659,-0.0077632414,-0.16088562,-0.015313646,0.017569507,0.022605075,0.059774976,-0.18477157,-0.029446965,0.044620074,-0.019590205,-0.023951733,0.08225809,0.118076615,-0.08727272,-0.17642665,0.15133938,-0.103054725,-0.09722648,0.17570662,0.14435337,-0.15441322,0.027861321,0.052867223,-0.124984615,0.07377633,0.12156114,-0.08461383,0.098408036,-0.05017498,0.22860265,0.16442122,0.19997235,0.041753374,-0.12765685,-0.09039072,0.06497948,0.065052226,-0.20865212,-0.1268888,0.21147083,0.05111941,-0.27594334,0.14673907,0.24618201,-0.08716833,0.05698729,0.22866426,-0.024807576,-0.059471883,-0.10457773,0.27186036,-0.13238671,-0.09207132,-0.2494727,-0.23024632,0.14276461,0.053444404,-0.05485595,0.06991652,0.05426451,0.15281418,0.08149649,-0.086719275,0.035051793,0.15432848,0.15668015,0.056343086,0.03624185,0.10065321,0.32347044,0.15531157,0.17927486,-0.2124029,-0.109605834,-0.10107575,-0.082768954,0.06917753,-0.06045529,-0.16388157,-0.0020463837,0.15326239,0.13826644,-0.13641785,-0.3244629,-0.097900264,0.0037839578,-0.020259328,-0.053909115,0.13167483,0.064518854,-0.039919183,-0.06737558,-0.16359481,-0.1495558,0.12181798,-0.3023409,-0.34070778,0.21451639,0.023179201,0.15313089,0.14795393,-0.057057284,-0.10185475,-0.2196049,0.024577538,0.101345874,-0.08869016,0.07252363,-0.08081387,-0.012498727,-0.012975577,-0.058045473,0.08860284,-0.022644913,-0.06117048,-0.04290127,0.15684329,-0.12689841,0.17477266,-0.16066304,0.02770675,0.3764161,0.20944083,-0.20240605,-0.020267997,0.08485596,0.15549886,0.21789655,-0.15065359,0.079893135,0.08266119,-0.01713788,0.13237296,-0.08358269,0.013843033,0.10838879,-0.0681864,-0.1986908,-0.2087214,0.008832298,0.19841783,-0.081173286,0.18751417,0.03340815,0.05153366,0.088511646,-0.003353807,0.32964382,0.10897041,-0.08213654,-0.046749167,-0.14662448,-0.03217772,-0.04487093,0.11915902,-0.015144275,-0.043223012,0.04058994,-0.21400052,0.061959974,-0.0804504,0.07128146,-0.16439608,-0.09511399,-0.08621886,-0.0128724165,-0.19514622,0.12304023,-0.2995053,-0.17327115,-0.2917897,0.19538063,0.08647799,0.24875471,0.066059396,0.00738055,-0.20933379,-0.052689496,0.083033994,-0.2243226,-0.10922647,-0.008446165,0.008910164,-0.004730472,-0.13095836,-0.10969922,0.19526169,-0.093459845,0.057817925,-0.11629624,-0.035303846,-0.07788271,0.15070753,-0.05336476,0.14029592,0.018579481,0.0653607,-0.17139411,0.012160534,0.090138264,0.060484495,-0.304704,0.06148364,0.043365136,0.00524511,0.20998706,-0.012997111,0.11439223,0.031763818,0.17352706,-0.13027152,-0.06378518,0.17822622,0.07520563,-0.05071668,0.17997015,0.1177599,-0.11979191,0.03473388,-0.022229562,-0.028691128,-0.13580161,0.05967477,-0.09488763,0.1650395,0.05239362,0.047179624,-0.22591475,0.009850857,0.015859216,0.12335596,-0.042384002,-0.10732134,-0.19803946,0.06913222,0.04761883,0.058396835,-0.04741028,-0.09418374,0.2226351,-0.12381646,-0.25354108,-0.15464671,0.118750535,0.17367375,-0.1680699,-0.23966601,-0.19466168,0.061377205,-0.037164163,-0.0040623583,-0.021865856,-0.18418108,-0.1457667,0.22955836,-0.22483528,0.013722725,-0.056724437,-0.010059765,-0.080504745,0.015140625,0.17757718,0.033392303,0.009973943,-0.021713886,0.16925454,-0.051262323,-0.10575252,-0.093201004,0.18362305,-0.035169177,0.12835638,-0.080012776,0.11219465,-0.1149087,0.000979796,0.06052728,-0.21428756,0.07466252,0.090404116,-0.04124644,-0.115947045,0.1420628,0.1556506,-0.04688827,0.022582822,0.052778836,0.043223605,0.11947058,-0.04065721,0.30677688,-0.26050815,-0.047742676,-0.03389265,-0.04214113,0.29169336,0.09689457,0.027469061,-0.07204872,0.21650586,0.06118993,0.09362604,0.12243724,-0.10301451,-0.005173487,0.07009473,0.10691691,0.034724526,-0.06401995,0.13755596,0.035783805,0.008476101,0.11978455,0.15246701,0.08126735,-0.04907929,0.019930793,-0.08803301,-0.072293766,0.0523702,0.16336058,-0.017810004,0.16789213,0.017614368,0.056382075,0.085971236,-0.047945485,-0.09397596,-0.049526557,0.10103012,-0.154679,-0.12346346,-0.14494452,0.24939361,0.03293052,0.12256306,0.030227311,-0.051903084,0.043361098,-0.022778066,-0.010096547,0.047135144,-0.02162979,-0.01887378,0.0059588454,0.087371156,0.10403534,-0.15874223,-0.029950684,-0.10195176,0.01677372,0.024375627,-0.09971068,-0.082170926,-0.060572598,-0.07952677,-0.12601939,0.015062623,0.041127663,0.1086931,-0.19101466,-0.20015448,-0.18395266,0.20123442,0.07261662,-0.07120084,-0.26972297,-0.07983336,0.053741336,-0.040690213,0.12910324,-0.04495006,0.066952534,-0.09037945,-0.02214857,0.09537616,0.09428701,-0.10625592,-0.117605485,-0.0015973474,-0.08615624,0.08190885,0.0224213,-0.034861516,0.09828918,0.20231621,-0.1985625,-0.0031353484,-0.112652704,0.02279616,-0.050186478,-0.08219352,-0.14152807,0.10708259,-0.15543954,-0.088735215,0.0977017,-0.14222583,-0.17556237,0.12070931,0.025441414,0.0069006328,0.030063624,-0.10865062,-0.05387,0.18874146,0.023982342,0.0979184,-0.108674884,0.0649227,0.15276028,-0.15915118,-0.079489596,-0.1073717,0.122027546,0.20367692,-0.07049201,-0.04738063,0.079731055,-0.0035408058,0.052043654,-0.013048131,-0.05754716,0.23718224,-0.02126396,-0.049649134,0.068580344,-0.07828732,0.14858393,0.09804804,0.10224112,0.06583113,-0.24813706,-0.12991516,0.037813548,0.07913003,-0.037626717,-0.03687241,-0.006125399,-0.063894965,0.10179269,0.041696053,0.037194986,-0.13531078,-0.13082694,0.066822894,-0.013062424,-0.02140969,0.1478521,0.069450594,-0.022748021,-0.03934573,0.07607264,-0.1449422,0.04225993,-0.18880668,-0.10780714,0.17230174,-0.0567732,0.08551979,0.010404375,-0.049845964,-0.07998704,-0.055964887,-0.015913619,0.15531133,0.03786941,-0.18857707,-0.012993951,0.14209972,0.10718358,-0.022077855,0.018348448,-0.015540469,-0.02486143,-0.1412457,0.15209761,-1.3989702e-05,0.10064746,0.03503615,0.12166452,0.14289522,0.1300351,0.062653884,0.014153127,0.015360011,0.11655258,-0.041740373,0.06891072,0.1192806,-0.04835098,0.034714866,0.048052166,-0.13265108,0.018401956,-0.055586006,-0.006312941,0.073362604,-0.030286014,0.11344583,0.07931527,-0.10159578,0.1821065,0.085137025,-0.07393155,0.06524007,0.018705808,0.010406218,0.013561208,-0.039094076,-0.0044247033,-0.043808013,-0.11617299,-0.054679256,-0.10522072,0.11464028,0.04607032,-0.16830087,-0.1369557,-0.018050341,-0.04854717,-0.16701853,0.0994401,-0.06826919,-0.15030381,0.108872265,-0.034620512,0.13458957,-0.24124908,-0.114354946,-0.02481337,0.08325271,-0.037460428,0.047661263,-0.073082015,-0.056919683,0.106315434,-0.046478666,-0.050997656,0.024881298,-0.0072402903,0.09594219,-0.0963715,-0.018121261,-0.1514804,0.11044879,0.22305533,-0.034706883,-0.007560763,0.0025429456,0.0009101777,-0.0937009,0.14069663,0.13475823,0.059273563,0.04650042,0.015184832,-0.09110169,0.057073455,0.017703557,-0.006530014,-0.0650529,0.13722819,-0.037933152,0.16731298,0.0054254825,-0.07154927,0.00756447,0.028596306,0.0884027,0.024372026,-0.113500215,0.10166221,0.39718845,-0.1267912,0.037641414,0.08201278,0.014378484,0.1624641,0.036706094,-0.041736502,0.08372639,-0.058000274,-0.06484565,0.090883255,0.04613648,0.27845806,0.05544207,-0.027254302,-0.20174295,0.061384205,-0.0021599147,0.032246143,-0.09801917,-0.07317459,-0.0011995459,0.08559295,-0.086279474,-0.09007506,-0.067067616,-0.26222193,-0.19750695,-0.082278065,-0.0031945868,0.020417,-0.15887272,-0.2123254,0.109425664,0.16138835,-0.061035402,0.032029252,-0.011038907,0.088174045,-0.090317205,0.06784621,0.07891707,-0.071384944,-0.06837751,-0.051720332,-0.093896665,-0.06564489,-0.031560816,0.1593989,-0.19612958,0.119282536,0.16339989,-0.19875354,0.046167765,0.08585647,-0.011023555,-0.010769289,0.07685562,-0.2501336,-0.049223784,-0.20004661,0.084685065,0.11915336,-0.05223209,-0.1963844,-0.0065272273,-0.097368546,-0.1428298,0.08159778,0.06661884,0.14016935,-0.015232798,0.15585475,0.15108888,-0.13719937,0.0017686726,0.2546345,-0.049367655,-0.011976353,-0.12785503,0.035098072,0.04514952,-0.11238145,-0.21924603,-0.067328185,0.0047173793,0.11777467,-0.0034710988,-0.062500216,0.24062723,-0.016561536,-0.15218413,-0.12516613,-0.013366039,0.09761959,-0.08591841,-0.19038303,-0.08977007,0.101721294,0.1708027,0.15955952,0.0129218325,-0.11851144,-0.18120012,-0.0264799,-0.008539804,-0.10623448,-0.010517137,0.16491571,0.32980567,0.05052039,-0.065188,0.11277305,0.17302564,-0.102388635,-0.03387853,-0.019888066,-0.013775368,0.021931233,0.18890187,-0.123183645,0.2845675,0.36121446,0.003431244,0.081369705,-0.17531693,-0.10513277,-0.073101066,0.053140577,-0.072121195,-0.057914242,-0.08170517,0.11982364,-0.07559792,0.10293915,0.02838219,0.04424088,0.23017992,0.038393788,-0.14822906,0.14170362,-0.13157313,0.015471702,-0.10174408,0.015664538,0.22945492,-0.019978758,-0.40081388,-0.24765937,0.14829752,-0.21007504,0.03649653,-0.08471886,-0.21690187,0.06954151,-0.14891224,0.006535604,-0.01961708,-0.00018287875,0.077029325,0.02611904,-0.26710176,-0.026685275,0.21847759,0.212833,-0.17760782,-0.07879699,0.18790416,-0.10361354,0.05589463,0.0153647605,-0.16632806,-0.06559973,-0.18758054,-0.042695887,-0.045094553,0.20195174,0.09885078,0.06400771,-0.0029846288,-0.048558276,0.005587957,-0.11348411,-0.21216062,0.25833833,-0.060930923,0.07019279,0.1006557,0.22791302,0.24967116,-0.07751858,0.03263239,0.18027608,0.069191545,0.15475677,0.04217976,0.28573853,-0.15465428,-0.13684054,-0.1186895,-0.33460295,0.076418124,0.09326073,0.09583889,-0.01856228,0.2565381,-0.019096693,-0.1382305,0.006187653,0.15652739,-0.03352737,-0.110333756,0.17467338,-0.04670436,-0.069719896,-0.055613846,0.027001182,0.2539903,-0.01476975,0.010005648,-0.15395704,-0.063843146,-0.04920117,0.11584346,0.111054845,0.06704845,-0.09556331,0.093396604,-0.08686813,-0.06704609,-0.24579102,0.13824533,-0.026459785,-0.23805463,0.0019508796,-0.027259858,0.09902081,0.015164473,0.038103264,-0.062245037,0.08958707,0.049531486,-0.09641926,-0.03894027,-0.03500964,-0.20601203,0.15171845,0.0031072947,0.07960607,-0.05137652,-0.09443221,-0.05335116,0.0041327635,0.1973992,0.09482367,-0.1314384,-0.20674612,-0.1593255,0.05564413,0.06861512,0.073774494,0.08680365,0.054499727,-0.014599093,0.0872728,0.14692275,0.27911234,0.14556502,0.14045748,-0.046073865,0.27221245,-0.058136925,0.06509659,-0.09652572,-0.026946377,0.038680404,0.04649383,0.04095403,0.026221255,0.013210783,-0.15708013,-0.033431496,-0.055971537,0.052098144,0.045341548,0.09761592,0.2378687,0.0647843,-0.047416084,-0.045788486,-0.027980808,-0.14761901,0.104522586,0.01128553,0.09330291,-0.17696628,-0.0687151,0.22768375,0.17804024,0.21343851,-0.04988488,0.0129490895,-0.0871387,0.032315124,0.10377808,-0.03674251,-0.042208552,0.056387372,0.055100095,-0.04098186,-0.16357237,0.15525477,-0.040310927,-0.04774611,-0.09106583,-0.10974417,0.12396702,0.11762154,-0.08510819,0.098992914,0.1455986,0.11808034,-0.02139386,0.048895683,0.017855253,-0.22645283,-0.23639172,-0.025391785,-0.031210518,0.09421814,-0.24083757,0.063808665,0.117178544,0.018481253,0.15623139,0.085307755,0.14756235,-0.07584311,0.056003645,0.0322314,-0.044027373,0.1326118,-0.011267913,0.0699575,0.07212098,-0.13586973,-0.13160725,0.09271971,-0.13349731,-0.07225558,0.11892123,0.19725718,0.15934561,0.0066902325,0.06553368,-0.049711607,-0.1632607,-0.01908826,-0.0024451788,0.17778435,0.061588563,-0.058320377,0.0045652166,-0.13265672,0.15769346,0.061856348,-0.13504174,0.11959032,-0.12252001,-0.11101178,0.048947275,-0.10077464,0.02041713,-0.20829064,-0.0754322,-0.021432044,0.14473185,-0.03263372,0.1005036,-0.019396862,-0.06754837,0.3196993,-0.0035992777,0.06222302,-0.1417639,0.04927123,0.036856733,-0.007963761,0.14533041,0.14956261,0.113643646,0.009093782,0.036427267,0.068960615,0.01393115,-0.049316265,0.10343874,0.05207545,0.086988844,0.13728917,-0.08620069,-0.1922129,-0.15293445,-0.039801188,0.07405644,0.09651164,0.120380394,0.046957992,0.06670961,-0.10828012,0.12648217,0.06162114,-0.11795193,0.03914714,-0.04674216,-0.024164842,0.011172698,-0.050507996,-0.18067828,-0.09000485,0.15401486,0.016360182,0.0066145277,-0.06651253,-0.048876204,0.112788655,-0.06319855,0.028103586,0.019808786,0.018465623,0.051604856,-0.08274944,-0.0450073,0.026337627,0.13736624,-0.010778409,0.044472933,-0.10837667,0.11959403,0.09640861,0.25555682,-0.010088847,-0.09737581,0.0065577147,-0.13051301,0.019961815,0.14529917,0.17350926,0.010424543,-0.091721445,0.29670227,-0.07197164,-0.40468344,0.024169289,-0.0026112485,-0.030025184,-0.054432664,-0.045817815,-0.19843528,0.19883627,0.16150703,-0.061272174,-0.07009881,0.031292953,-0.06353799,-0.122351214,0.049684655,-0.04617034,-0.004159157,0.10614635,-0.1484852,-0.10870668,-0.04255994,0.07724311,0.008837386,0.054346893,0.092674784,0.13703957,0.0010230294,-0.2167054,0.04908633,0.0706285,-0.14741755,0.019520765,-0.15033336,-0.12601376,-0.053497404,0.0095958365,0.07373467,-0.06456478,-0.113809146,0.1398446,-0.021580016,0.20139329,0.10261756,-0.057473056,-0.077862486,-0.08835338,-0.14706443,0.14792775,0.068600774,-0.3467554,-0.14031161,0.0033735512,-0.009481575,0.02475337,0.1191267,0.100647554,0.028658355,-0.039901584,0.08279156,0.16591047,0.14271793,0.053660307,0.08609762,0.028586114,-0.19441068,0.045670252,0.003939994,-0.10232513,0.19028755,0.16875383,0.14972098,-0.087826714,-0.07504579,0.011431403,-0.103537805,0.028166503,-0.0893367,-0.007522007,0.0803211,-0.023386355,0.08095465,-0.05586737,-0.064032674,0.011572535,0.01590946,-0.040654656,0.20192768,0.07280246,0.1045094,-0.06399273,-0.076894276,0.10173779,0.18381488,0.036836464,-0.030758888,0.07718397,-0.03903005,0.079242356,-0.167761,-0.2298146,-0.008741821,0.06559652,-0.045412358,-0.096468,-0.1811436,-0.039561994,-0.09848714,-0.05570877,-0.14399198,0.10402904,0.063265175,0.022143176,-0.02382922,-0.048365325,-0.15083498,0.06671322,-0.044514943,-0.03811854,0.085834205,0.029552575,-0.13604026,0.041952055,-0.05792772,-0.07825971,0.03631669,0.0015506188,0.08906167,0.13366766,0.032280996,-0.18359001,-0.20501484,0.23757973,-0.13723181,-0.005552622,0.11579758,-0.0870294,0.15353692,-0.12335193,-0.030228212,-0.06022505,-0.16146493,-0.0798272,-0.05341875,0.11947618,0.15158874,-0.013584172,0.08832778,-0.027048083,-0.14079864,0.052966584,-0.03655395,0.04606871,-0.08573708,0.028200572,-0.0027171879,0.036778554,-0.10509141,0.018275674,-0.05293333,0.06899474,-0.11357919,0.10090433,-0.09141784,0.04520254,0.04194938,-0.029652018,-0.13343099,0.039353885,0.12642594,-0.30395907,-0.019854603,0.0030664331,-0.06485688,-0.12148722,-0.16449775,-0.12306253,-0.0385686,-0.028136073,0.0093491925,-0.06178557,0.056977082,0.09340179,-0.07528466,0.121506274,-0.096765585,-0.04403607,-0.046354454,-0.06365263,0.22791134,0.25023293,0.011553059,-0.040242456,-0.10890265,-0.026118487,-0.12520365,0.029204488,-0.08578885,0.018607177,-0.1619379,0.05181057,-0.049290445,0.02166043,-0.11735817,0.17043723,-0.036944535,0.15006751,0.038275424,-0.023190605,-0.10914229,0.086765476,0.11261291,0.18276563,-0.027535973,-0.114770815,-0.0044951555,-0.1957221,-0.09986581,0.08618666,-0.03348165,-0.0018973319,-0.08785214,0.10478736,-0.06948068,0.10703825,-0.08992146,0.04782936,0.04778481,0.065267496,-0.17955436,-0.041304592,0.02403495,0.0007531074,0.095092505,0.00229344,-0.021547414,0.022867065,0.07266149,0.016777989,0.051431857,-0.11591859,-0.074386366,-0.061126973,-0.066230245,0.096544266,0.09366454,0.1480917,-0.064354956,0.018606069,0.0071095596,0.0015179107,-0.3116273,0.14005138,-0.070460565,-0.14467442,-0.0047096573,-0.018354427,-0.06905269,-0.062780574,-0.12494929,-0.07051511,-0.043365333,-0.078183405,-0.014573481,0.10131094,0.015908511,0.04574276,0.099097446,-0.116632305,-0.030307475,-0.1436111,-0.16791897,0.01862262,0.04902787,-0.05587659,0.06740351,-0.060679756,-0.11099967,-0.06735007,-0.011984159,-0.017842272,-0.1268653,0.012824888,-0.05733123,-0.10390795,0.06696732,-0.09405494,-0.24398234,0.071655974,0.22493525,-0.18027154,0.045323793,-0.055684246,-0.15252611,-0.22397146,0.21296257,-0.07956157,0.12725034,-0.099149324,0.051844712,-0.07120195,0.034216847,0.03963739,0.03193348,0.084088705,-0.04510441,0.027262265,0.07155728,-0.18616505,0.10254458,0.1390262,-0.12374588,-0.25587475,-0.010465373,-0.034313858,0.005079193,0.056237865,-0.09248421,0.14958912,-0.19244733,0.08688242,0.018520122,-0.06626652,-0.052109975,0.017637437,-0.020048505,0.22006728,0.057867333,-0.025089981,-0.019305173,-0.02125065,0.11128889,0.053919755,-0.045368787,-0.0816493,0.2195457,-0.1723019,0.050304305,0.15452743,0.06358567,0.0020859118,-0.10554652,-0.08241221,-0.20196868,0.08612045,-0.14887494,0.02929464,0.008820659,0.11753234,-0.08183836,-0.13981482,0.08574882,0.11721161,-0.027623529,-0.21355447,-0.25145313,-0.05843419,0.045574736,0.3163995,0.03138897,-0.31353897,-0.18973966,0.17113246,0.057172086,-0.29967162,-0.11900937,0.2001954,-0.05994616,-0.15089811,-0.07153942,-0.2892466,-0.17147268,0.12640145,-0.17530592,-0.016247425,-0.009533151,-0.0966946,-0.021795666,0.093679495,0.00078859215,0.07622826,0.2397744,-0.12245833,-0.21483074,0.04331105,0.06642484,0.24895892,0.14489186,-0.05740426,0.12780456,0.34469655,0.17896767,0.020813381,0.04731428,-0.1750528,-0.016788151,-0.033300616,0.17319092,-0.03121344,-0.0499873,-0.207438,0.046471808,0.14413168,-0.09989336,0.07507091,-0.07603624,0.028465794,-0.07644909,0.17678083,-0.070658416,-0.019944947,0.047951628,-0.26799107,-0.061661303,-0.20688377,0.35756764,-0.04978747,0.14588177,0.076194294,-0.011804359,-0.035670765,0.04949795,-0.033156667,-0.01450526,-0.13209163,-0.014789166,0.16583432,-0.04354681,0.011046316,-0.04864805,-0.09533206,-0.07238111,0.09851726,-0.0014230596,-0.13776505,-0.0042313337,0.026258642,-0.3605109,0.057305317,0.0075891097,-0.04294441,0.14578755,-0.08098752,-0.15209883,-0.16643798,0.037380077,0.06760437,-0.0060513197,0.16509452,0.12047872,-0.16057767,0.14342423,0.08784098,0.1819825,-0.30950847,0.23521085,-0.017588336,0.12498524,0.13993546,-0.08884695,-0.17786339,-0.052993175,-0.08521158,0.16626751,-0.120250486,-0.049144153,0.07227578,0.11343125,0.19801408,0.08639693,0.076969266,0.13031249,0.24032207,-0.023145262,-0.025177909,-0.3145878,-0.15653835,0.13502133,0.20046818,-0.18048483,0.11504676,0.14760946,0.032499935,0.1658892,-0.12515743,-0.05812288,0.021347879,0.16057324,0.0020098248,-0.03857763,0.062326226,0.121165,-0.35818887,0.02482325,0.055706665,0.11964102,-0.042410336,-0.047921862,-0.004735729,0.07820137,0.09368749,0.2788438,-0.08297381,0.017614715,0.08973203,-0.031202966,0.032401584,-0.217722,0.12998603,0.004562112,0.052828886,0.099238284,0.057546448,-0.18765327,0.04441025,0.10676738,-0.035564985,0.11610341,-0.14316794,0.03912587,0.07357047,-0.08125141,-0.15644462,-0.15075046,-0.034825396,-0.02142583,0.14461677,-0.048496734,-0.15290818,0.06968591,0.2151267,0.027342398,-0.19197011,0.053771112,0.08949946,0.076579094,-0.17988943,-0.13891236,-0.012248062,0.26517856,-0.17619547,-0.07891196,-0.07453047,-0.051143408,0.08978632,0.032635365,0.07275518,0.020815875,0.0018067124,-0.17001651,-0.02647239,0.064568125,0.06352342,0.023496794,-0.013746163,-0.05380543,-0.002191604,0.040074337,-0.1045387,-0.034585632,-0.029490316,-0.07490613,0.13215029,0.07213605,-0.0966641,0.0058302395,0.13973059,-0.08584525,0.075605325,0.043134306,-0.04669977,0.10703578,-0.039211854,-0.06597031,0.03534418,-0.15257831,0.0027983033,0.18642078,0.044049244,-0.029992454,0.23669899,0.0002900034,-0.07929946,0.06824433,0.09635188,0.17836402,0.029458527,-0.05715905,0.040546924,0.033232223,-0.013421325,0.06033336,0.20963797,-0.003634274,-0.04577681,-0.20958735,0.040096313,-0.06477418,-0.11844939,0.13004403,0.12839021,-0.039551757,-0.0051295357,0.033805765,0.087583594,0.02377542,0.004217351,-0.13923407,0.16423075,0.0023425138,-0.008445674,0.03489018,0.073477075,0.17050755,0.027003229,0.18977733,0.042272978,0.12662894,0.04064777,-0.20244107,-0.010227021,-0.21791473,0.022289725,0.06932851,0.1789141,-0.00062648475,-0.10102133,-0.11979695,-0.06571059,0.05090255,0.020782879,-0.12968749,0.08420834,-0.06394118,-0.04726667,-0.03835983,-0.17411777,-0.06923973,0.0660814,-0.16455628,0.014030625,0.06400553,-0.015259293,0.12664302,-0.03942521,-0.11726463,0.10709035,-0.21724398,-0.055050533,0.098716356,-0.33801115,-0.025275296,0.22060314,0.17268029,0.05085827,-0.22362289,-0.12112667,-0.027755497,0.025701286,-0.092625916,-0.15022343,0.0026387696,0.0075162994,0.09594791,0.15066995,-0.12039245,0.1532272,0.02210224,0.13188143,0.091292284,0.0799091,-0.05550912,0.026348341,-0.12360968,-0.017036423,-0.13111702,0.06394104,0.13771872,0.072208926,0.13829707,0.010106614,0.046845343,-0.010775914,0.13138378,0.030292932,-0.042133473,-0.06707703,0.07942617,0.024530912,-0.21074453,-0.041619077,-0.2209183,0.08877576,-0.09981682,0.02152427,-0.045146838,-0.038151894,-0.110562325,-0.05668621,0.052043058,0.017205767,-0.07214743,0.06358623,0.010428218,-0.16228485,-0.02042092,0.038260378,-0.03221933,-0.18669909,-0.1433859,0.08732659,-0.14029431,-0.022904025,0.042152163,-0.09825615,0.05638732,0.01091967,-0.13262883,0.11215238,0.04306684,0.0013006506,-0.07307424,-0.053932507,0.04139404,0.13558586,0.007551942,-0.05928354,-0.16018564,0.081832424,0.08024559,-0.044934083,-0.067356765,0.0596891,0.050972827,0.085674584,0.033366106,0.012037881,0.020259833,0.01744994,-0.06304664,0.049200278,-0.019903976,0.017117279,0.051622093,0.036513463,0.09464578,0.028715858,-0.0736841,-0.19684955,-0.08230497,-0.16556482,-0.10382853,0.024571614,-0.18733627,-0.0756692,0.07619796,-0.06564191,-0.071170025,-0.116220586,-0.17032605,0.05201599,-0.010123815,0.045016594,-0.048956025,0.0009777094,0.107835256,0.08543443,-0.14318873,0.034226187,-0.06939418,-0.089830324,-0.03559127,-0.012478814,0.015998581,0.024200413,0.13154724,0.10809705,0.08649048,-0.1031033,-0.14395869,0.10648752,0.09573871,-0.072693795,-0.03494683,0.07563892,-0.23122106,-0.08957906,-0.014405405,-0.07613571,0.086592786,0.118530184,0.038068697,-0.008344258,-0.018936574,-0.13153517,-0.030902281,-0.06975142,0.03294904,0.00763548,-0.03541792,0.03767585,-0.08884654,0.14335525,-0.11390251,0.038812973,-0.018235039,0.1289228,0.05522506,-0.016933553,-0.1318156,0.10814699,-0.022463217,-0.0016280587,-0.09147876,0.039841074,0.038260985,0.011046109,-0.10335976,0.029731942,-0.12090158,-0.095157504,0.2052245,0.04063597,-0.30028576,-0.19466874,-0.02433709,0.113859355,-0.10254961,0.07507186,-0.12715009,-0.00042279722,0.074561566,0.08717865,-0.17991388,-0.06729105,-0.17912154,-0.1033241,-0.028218416,0.03622487,-0.025487112,-0.048459105,0.023655543,-0.21484797,0.011747102,0.1746602,-0.06705917,-0.063148186,-0.1297601,0.18375005,0.049194887,-0.1987506,-0.0574125,-0.18899272,-0.040806938,0.09491326,0.12179418,-0.05136497,0.097942434,-0.0005657815,-0.10585852,0.13079634,-0.18670453,-0.22018005,0.15884247,0.31100985,0.090566546,0.11015399,0.004508712,-0.1639588,-0.11666199,-0.21139178,-0.09232826,0.04066352,-0.11578362,-0.1478754,0.21525796,-0.0045334604,-0.16129126,-0.03079641,-0.0025761102,0.20715845,0.18571305,-0.06580277,0.021511476,0.049851824,0.19032566,0.098994024,-0.098100774,-0.21688317,0.04145534,-0.37892315,0.057908382,0.12344705,0.07558953,-0.13703626,-0.085915685,-0.080141395,0.106528424,0.018804612,0.05347142,-0.021109696,-0.21603142,-0.11332544,-0.002369324,-0.007051736,0.09265525,0.09202018,0.08728637,-0.093296304,-0.052728128,-0.050923668,-0.14500672,-0.13789853,0.16096881,0.07129865,-0.06973985,0.11574489,0.17618532,0.098364174,-0.02477286,-0.03987402,-0.248085,0.06328491,-0.00087313855,0.25687084,0.18122274,0.045151297,-0.18438022,0.0065888087,-0.3694565,0.011837272,0.12065063,-0.041581087,-0.2854344,0.022665592,0.08417464,-0.12990482,-0.014408139,0.09763117,-0.118312925,0.026926657,0.16600692,-0.0479131,-0.24115072,-0.17987823,0.22460786,0.06923684,-0.22757219,-0.08295673,-0.12388412,0.041895937,0.030721575,-0.110269696,-0.0044887243,-0.064122185,0.055999774,0.090944394,-0.075336516,-0.13657743,-0.1102525,-0.057159025,-0.020645492,0.019649412,0.14652503,0.2973365,0.084245384,0.025628954,-0.26341775,-0.01858655,-0.1929932,-0.34771022,-0.13040915,-0.008790984,-0.044699863,-0.06854244,0.12203078,0.09979404,-0.02489179,-0.1529882,-0.19376887,0.15579309,-0.3221173,-0.22946623,0.19066294,0.046822716,-0.015327949,0.37076938,-0.11761847,-0.2497532,-0.13200042,-0.14262728,-0.02273232,0.17319654,-0.018059038,0.011361765,0.08824868,0.14721948,-0.021553442,0.14318734,0.15053195,0.10745498,-0.025845412,0.43893233,0.039417755,0.17025007,0.09899595,-0.081652075,0.19472274,0.22382993,-0.24889319,-0.33509946,0.12568742,0.21425666,0.19155145,-0.16831912,-0.010305399,0.3022922,0.2816525,-0.048914045,0.1834266,0.15681916,0.079896644,0.36127326,-0.091064066,0.0076463446,-0.016715186,0.019246677,0.24798006,0.10554894,0.05690693,-0.0025487319,0.08685363,-0.10494292,0.10222297,0.3425833,0.32763758,-0.05211599,-0.11011303,0.029711494,0.030696267,-0.037569918,0.030037312,0.104777865,-0.24181516,0.029458039,0.031066168,-0.09592263,0.1282725,-0.14840901,-0.02659789,0.060908455,-0.07472159,0.19837195,0.049378186,0.033745226,-0.04499644,0.18729965,-0.058848098,-0.19729632,-0.112819634,-0.1442435,-0.21361093,-0.04790854,-0.1479113,-0.28257385,-0.15133539,0.18571052,-0.04956113,0.2954197,0.21306902,-0.025110152,-0.24286316,-0.10281019,0.017953837,-0.023644483,0.108969174,0.08443052,0.007775937,-0.20230399,0.04722741,0.09562716,0.051544953,0.016432256,-0.10433822,-0.07532668,0.02363157,0.14834167,0.139975,0.11119432,-0.0071280366,0.17924745,0.11088633,0.22875594,0.17621768,0.179908,0.119567886,-0.12380577,0.001070021,0.09612974,0.17309465,0.058429018,-0.0890027,0.022107992,-0.08285305,-0.050895136,-0.043604027,-0.22606575,0.0780077,0.27733195,0.24588615,0.018624865,-0.069242485,-0.08656447,0.18723397,0.01569349,-0.1775127,-0.22465849,-0.11464104,-0.037227273,-0.016185325,0.02625525,0.086121164,-0.380531,-0.20831151,-0.08547718,0.075149715,-0.0252122,-0.0030872312,-0.06261246,0.017956166,0.17742787,-0.045168683,-0.08415435,0.0064678118,-0.024130773,-0.30904213,-0.12602405,-0.1931829,-0.14342035,0.06561465,-0.10489194,0.0024243225,-0.14132299,-0.11613004,0.20811541,-0.04940098,-0.09973992,-0.22223613,-0.09777648,0.19197667,-0.023596724,-0.014448696,-0.113945864,-0.12020539,0.005710915,-0.16922528,-0.03298445,-0.018172517,-0.07141357,0.014841088,0.16558908,-0.028525097,-0.03061089,0.06107262,0.045257747,-0.10524638,0.0986671,-0.12049041,0.09791112,0.0036658368,-0.17904915,0.04557081,0.031421214,-0.07161568,0.045909904,-0.10280349,-0.13906668,-0.14214523,-0.12081098,0.12991396,0.16648607,-0.086288795,0.113022305,0.09538046,0.21994221,0.008697484,-0.03752073,0.1698025,-0.11774882,0.03365158,0.05260051,0.07846135,-0.12004243,-0.03828735,-0.0007031809,0.0027124598,0.2139711,-0.0012827642,-0.13961707,-0.044145543,0.012684131,0.014788055,-0.020722391,-0.22091065,0.004504025,0.08276016,-0.0852562,0.089313775,0.057626612,0.010209012,0.11297607,-0.102702074,0.39656207,0.20047331,0.11052083,0.17468768,-0.120430574,0.12636521,-0.00808336,0.020246265,0.078041844,-0.22136734,-0.12122173,-0.06660037,-0.12663417,-0.10461969,-0.07285847,0.03628048,0.3216859,0.17060912,-0.078833506,-0.13534544,0.0065363348,0.0652543,-0.032846183,-0.04732908,-0.049950615,-0.054928638,0.1367656,-0.03851685,0.04249016,0.060269825,0.0022439244,-0.1372151,-0.07612717,0.019880643,-0.0064407005,-0.03560965,-0.16580056,0.21199428,0.023741987,-0.044405293,0.002847613,-0.08390763,-0.0126888715,-0.030822685,0.019903926,0.06637472,-0.028829379,-0.045419086,-0.12121438,-0.07126355,-0.1025246,-0.14414816,0.11547958,0.02707789,-0.10409271,0.025476161,0.0066684303,0.0070504136,0.20080747,0.1035269,-0.23286746,-0.27555972,-0.08095951,-0.12812781,-0.07084096,0.087435156,-0.016023653,-0.020585166,0.059393696,-0.0381044,0.013226563,0.08208655,0.11305665,-0.19283263,-0.016899541,0.0510759,-0.07188494,-0.115890175,-0.0051567275,-0.03270131,0.17882954,-0.03213814,-0.02193029,-0.13371891,-0.042408764,0.005961233,0.0014103034,0.088490665,0.24781403,0.06291334,0.08787155,0.0096593145,0.21682736,0.18481024,0.019397575,0.13353667,-0.10395812,-0.057660196,0.10182148,-0.1140633,-0.09880633,0.089308165,-0.035911877,0.14785708,0.036795545,-0.13573317,0.10310301,-0.12429493,-0.2108026,0.030387513,-0.074457414,0.16052786,0.045268044,0.10135454,-0.19240886,-0.09224692,-0.22616543,0.08032857,-0.097482346,-0.033398382,0.04365835,-0.09401428,0.12037905,-0.20544073,-0.06209694,-0.12493356,-0.0835473,-0.17632881,-0.03945399,-0.1246226,0.019234175,0.019120527,0.18002287,0.04459489,-0.11712262,0.15417029,-0.2853088,-0.1322489,-0.0038998697,0.12748738,0.25533932,0.12398538,0.021393387,0.032488357,0.18572523,-0.16246551,-0.15285553,0.25324288,-0.061552852,0.16428101,0.15689406,0.07674046,0.05843439,0.22274871,-0.06775555,0.10908575,0.0181445,-0.062249325,-0.1888694,-0.0016366354,0.12787521,-0.21217911,-0.07020155,0.1233052,0.06842969,0.053931445,0.010764318,0.02280673,0.12689044,-0.014092783,-0.031009018,0.15184702,-0.10303262,-0.14567664,-0.12072881,-0.036857564,-0.099591896,0.16256629,-0.2622474,-0.11808221,0.05711812,0.18237342,0.009153195,0.18335855,0.18049042,0.02279943,-0.06162948,-0.15103441,0.16028096,-0.11667131,-0.05427537,-0.26072553,0.14337867,0.1509454,-0.010903181,-0.0507043,-0.018560965,-0.08023665,0.10357722,0.06628747,-0.09212151,-0.014762807,-0.22889516,0.06734786,-0.15042166,-0.033925556,0.22367711,-0.3165173,-0.08130234,0.056563426,-0.11536075,-0.15104643,-0.3373675,-0.051835194,-0.10745239,-0.07377245,0.19876754,0.08595802,0.17905077,0.0024393545,0.026255524,-0.11549432,0.131188,0.13625696,0.179945,-0.047737297,-0.21306665,-0.012772818,0.06322319,0.14646178,0.12183873,-0.053845853,0.090027444,-0.018076446,0.077791564,0.019338218,0.0011286045,0.0041130846,-0.17098814,-0.10815197,0.13639653,0.03729033,0.07477637,0.15478352,-0.09562131,0.1661759,0.018563244,0.116990305,0.057185333,-0.20549792,-0.21367185,-0.01627326,0.09205191,0.04135685,-0.053147573,0.22424254,0.33926684,0.045579534,-0.11636365,-0.16854654,-0.020405881,0.08326417,-0.0793807,-0.061974593,-0.08591589,0.053625844,0.115250155,0.109636985,0.13202472,0.078681886,-0.11995201,-0.05169269,-0.023850555,0.11183553,0.0065455725,-0.14607358,-0.18080144,-0.067751996,-0.1632546,-0.007915512,0.11174628,-0.007981668,-0.035828486,-0.14624068,-0.11347332,-0.032359343,0.02891353,0.26779687,-0.026665198,-0.053031053,-0.033625066,0.16035411,0.18775068,0.052400865,0.0564622,-0.16581598,0.014341078,-0.09738418,0.19163331,0.16285267,-0.14713882,-0.2524149,-0.08082039,0.11720938,-0.0067945793,0.14386941,0.051963855,-0.010649776,0.025635056,0.09971559,-0.056611966,0.05573673,0.03445227,-0.16721725,0.12141472,-0.10624524,0.043175243,-0.15411891,-0.07437069,0.018473513,-0.07611238,0.008130772,0.11290485,0.022128947,-0.023072977,0.034018613,-0.07299345,0.19156142,0.20558016,-0.11547341,-0.019817445,0.045700118,0.10762336,0.17152365,0.0966566,-0.067353055,0.03355602,-0.017359687,0.068502925,-0.056760192,-0.10729889,0.048158716,-0.13150516,-0.009512859,-0.21350779,0.09057268,0.014198117,-0.030727154,-0.015487457,0.0020681352,-0.16884871,0.032447185,-0.14412926,-0.15627551,-0.14081016,0.11173831,0.2362271,0.16754301,0.22050847,0.033186376,-0.019547375,0.02919584,0.0886251,0.112200126,-0.119858354,-0.017762002,0.15780598,-0.029681629,0.1226895,0.014654666,0.08547218,0.041970327,0.0074226414,-0.10639784,-0.17749736,0.035032917,0.011784537,-0.048469614,-0.00020435707,0.08205519,0.03344911,-0.096822105,0.050097857,-0.16371877,-0.13525362,-0.13457495,0.01800951,-0.18338232,-0.029347166,0.057205897,-0.27018788,-0.045940857,0.11121732,-0.007241394,0.09207009,0.021642571,-0.0963103,0.06927327,0.04256527,-0.049017265,0.022191728,0.108364955,-0.009225891,-0.037582338,-0.29060405,-0.089027464,0.011295403,-0.1563433,-0.03909426,-0.15246429,-0.38833344,0.07870212,0.07560982,0.075382054,-0.12011429,-0.22601947,0.012360935,0.07116788,-0.23108041,0.011853204,0.060679022,0.13614295,-0.09398206,-0.2786114,-0.025922012,-0.059947368,0.13292325,-0.09604793,-0.031199373,-0.11593405,-0.05549967,-0.009871116,0.2813902,-0.0052949786,0.23948792,-0.01174907,-0.005108137,-0.17105396,0.0305547,0.06627422,-0.26079538,-0.100404896,0.09582158,0.0760078,-0.23824184,-0.023746584,0.22769028,0.05614411,0.2030873,0.1886818,-0.13252728,0.0009234735,0.05713385,0.26039377,-0.20234713,0.02589074,-0.27684855,-0.20022255,0.108789966,0.09830908,0.01828479,-0.07380312,-0.007631138,0.067307174,-0.119891115,-0.0064568766,0.14367029,0.083160736,0.04666244,-0.13960952,-0.101153575,0.058096696,-0.11509051,0.013193011,0.08306697,0.06282551,-0.24711725,-0.023870507,-0.14598668,0.09653928,0.035369575,0.122832336,-0.19484152,-0.045845713,-0.016772112,0.17767149,-0.23311575,-0.07912003,-0.05302602,0.1525212,-0.06257505,0.077844,0.041369047,0.010666927,-0.09884295,0.020939419,-0.09099842,0.078369804,0.026174478,0.077876955,-0.12693062,-0.16293459,-0.01994601,-0.0024429054,-0.21451151,0.18974195,-0.07048329,-0.189251,0.09269931,-0.019444097,0.2395484,0.0757669,0.014671433,-0.06360948,0.12031792,0.0038231197,-0.22477587,0.0151950875,0.002766977,0.09027176,-0.16563219,0.09662925,-0.067276105,0.01527457,-0.013456784,-0.21566027,-0.11280783,-0.102153905,-0.03582877,0.11060482,0.06597183,0.03861281,-0.072024055,-0.098952554,-0.17640933,-0.02516916,-0.115007594,-0.067137815,-0.23125868,-0.07879917,-0.055075645,0.055956196,-0.096904196,-0.0077754175,-0.06087918,-0.12482006,0.055719707,-0.0955585,-0.077631414,0.09689999,0.17057234,0.032433707,-0.13845254,-0.027144426,-0.03168973,0.22039345,-0.15344606,-0.14599286,-0.04772744,-0.09569417,-0.08354649,-0.03017713,-0.042342737,0.07380855,-0.11526834,0.16899878,0.025410417,-0.03530091,0.009825768,-0.10542044,0.04655297,-0.074553624,0.0668647,0.085396506,0.054706387,-0.21082427,-0.13450244,-0.04827168,0.11181541,-0.01357801,0.081901476,-0.27468854,0.021949865,-0.2338721,-0.121111535,-0.025844125,0.118080825,-0.014156537,-0.07851159,0.12821569,0.026934225,0.06850276,0.07716077,0.10679492,-0.099647745,0.025184885,-0.21199822,-0.11766527,-0.0757895,-0.13873038,-0.12928033,-0.012607187,-0.057994846,0.053920638,0.013079856,-0.03318916,-0.04802233,0.021404473,0.1133011,0.213636,-0.11803992,0.06962181,0.083557226,0.05956323,0.09544609,-0.0024479413,0.021031383,0.0075869635,0.003850216,0.027723063,-0.06372446,-0.03299797,0.013228807,0.0023382977,-0.013595844,-0.08084703,0.085257635,0.033426825,-0.10654148,-0.11323134,-0.01564257,-0.026857862,-0.06923947,-0.010946002,-0.108112745,0.18282467,0.13204718,0.040640015,0.17982917,0.12154577,-0.010280446,-0.15521133,0.059103422,0.2411326,0.05018922,0.046632186,-0.0145932315,-0.05169218,-0.08556585,-0.101805486,-0.10229147,-0.045038987,-0.16083942,-0.013866905,-0.029244434,-0.017845562,0.11430415,0.030280856,-0.010558788,-0.14634138,-0.020884477,-0.04489282,0.03711824,0.04171359,0.042775698,-0.14209719,-0.1875102,-0.08870002,-0.03280979,0.079357624,0.0052149813,0.021519938,-0.08681208,0.058194593,0.11109545,-0.14976028,0.023708202,0.16953143,0.033586938,-0.01581813,0.070438504,-0.030622346,-0.022727625,-0.10256054,-0.009458588,-0.040929276,0.0023595353,-0.020451171,-0.051367156,-0.033335507,-0.038176812,-0.074418835,0.031838823,0.06660862,-0.0031679634,-0.13333362,0.021861482,-0.03918003,0.16704555,-0.07774379,-0.06847894,0.042463902,-0.020984592,-0.0042122295,0.019153416,-0.0057914094,0.023574712,0.121915534,0.08195394,-0.08213323,0.11191248,-0.09192303,0.022768937,-0.0123357,-0.10159052,0.032538734,0.14895082,0.17333815,0.14808828,0.17837317,0.21946563,-0.001638477,-0.24077734,0.17504914,-0.1342313,0.12354947,0.09717684,-0.08824486,-0.113935456,0.008473174,-0.049710307,-0.079454124,-0.2589569,0.022613354,-0.10215686,0.10130473,-0.036604032,-0.056812398,-0.097879596,-0.23237452,-0.02894205,0.024245387,-0.031154808,-0.043531656,0.20449293,0.112961985,-0.21264589,-0.20356452,0.082774945,-0.05637861,-0.04450732,0.07265673,-0.13736384,-0.0050230413,-0.015799982,-0.009477339,-0.1116683,-0.0003876795,-0.035144765,-0.07557873,0.09576438,0.22165588,-0.090978324,-0.10903176,-0.028649744,0.0006756613,-0.15702698,0.0066447044,0.27384758,0.024960017,0.018675737,0.061832577,-0.044521414,-0.03356131,-0.045852117,-0.10732626,0.007840425,-0.11283904,0.14137636,-0.012237471,-0.09133983,-0.28106,-0.015014407,-0.08797866,0.022908336,0.017227985,0.16804121,0.06311174,0.02219905,0.07825717,-0.104490556,0.121285595,0.072199985,-0.09121396,0.0076948083,0.17582919,-0.061876286,0.0578069,0.12251828,-0.038164146,0.0027802174,0.10707419,0.012633623,0.005709482,-0.12601498,0.07912093,0.041975494,0.17162208,0.016554704,0.085023805,0.08362966,0.08317393,0.106455505,-0.051072232,-0.13059312,0.23593917,-0.3709761,-0.070319116,-0.20818031,0.113113545,-0.13800937,-0.0007840688,0.013648948,-0.114846766,0.08764386,-0.042306844,-0.13373785,0.057357162,0.06714497,0.06113172,0.11938722,0.01219608,0.054719698,0.09613012,0.089865334,0.025432454,0.19736949,0.007058615,-0.18205833,0.1976981,0.006837962,0.03320125,0.04180701,0.15244368,0.03525513,-0.004628774,0.09026503,0.046502586,-0.06748565,-0.020735735,0.040289436,-0.034835838,-0.03580159,-0.121831454,-0.10685189,-0.050442107,-0.039019264,-0.08433956,0.10433764,-0.019753626,0.18623008,0.06442683,0.141361,0.017297996,-0.017103896,-0.07832767,-0.020728463,-0.19799533,0.13295725,-0.018924167,-0.03495862,-0.016728135,0.07110216,-0.11547808,0.04261716,-0.07201997,-0.14324343,0.01082716,0.00018769165,-0.06280605,-0.10772171,0.17661344,-0.2506221,-0.18594532,-0.16163862,-0.072634056,-0.09478491,0.070728235,0.07735557,0.038939618,0.020723462,-0.037007976,0.23570435,-0.08072918,-0.110168956,-0.06496301,0.026015196,0.04680634,0.12055922,0.14323893,0.039220966,-0.12817644,0.07854774,-0.08138946,-0.065322176,-0.05803597,0.2109444,0.118342265,0.15507871,0.08243704,-0.1471923,0.16586456,-0.041807882,0.07992763,-0.10612137,-0.048628587,-0.046975937,-0.0018481072,0.018915163,0.15435869,-0.019138396,-0.06112771,0.046654567,-0.016937029,0.035242178,0.01867235,-0.059675384,0.116528474,0.016935468,-0.079168655,0.0666101,0.09421512,0.17028503,-0.026117159,-0.07828592,-0.013981757,-0.031151779,-0.12838422,-0.23579526,-0.15661086,0.0064108754,-0.004361223,-0.018832333,-0.11124281,0.00694464,0.18530488,0.03974576,0.06754388,0.1499638,0.037345707,0.13883214,0.20045601,0.20320423,-0.056538805,-0.053551935,-0.14681295,0.09475116,0.21212567,0.022504034,0.09650873,-0.45757633,-0.12541917,-0.03745133,0.0665739,-0.12597302,0.03761785,-0.017760465,-0.1116465,0.020511404,-0.006079352,0.03208654,0.13763008,0.31204233,0.025819657,0.16785304,-0.21636143,-0.21979016,-0.09537562,-0.17886472,-0.057990186,0.17969191,-0.20938648,0.14281352,0.08245264,0.024661003,0.10216107,0.08766923,-0.032188658,0.34615,-0.035373125,0.085811146,0.12939185,0.14975268,-0.0045548594,0.093596235,-0.15343195,0.059023455,-0.061074343,-0.03722375,-0.036547534,0.055671595,0.09593404,-0.26511833,0.035999376,0.0029921324,-0.043956954,-0.16505486,0.039702956,0.25575852,-0.027172802,0.29264933,0.23842432,-0.023535062,-0.17619377,-0.076319024,0.16500941,-0.13777977,-0.08685407,0.08727848,-0.11047657,0.019508367,0.15971385,0.17874287,0.09808206,0.16156785,-0.14977115,0.3083069,0.047074683,-0.0029908365,-0.018353028,0.11015538,-0.025850423,-0.06957128,0.13559681,0.11340661,-0.02397561,-0.1317174,0.063833825,0.14804614,-0.15164953,0.060321487,0.027572792,0.10829732,0.18006262,-0.07776843,-0.026545051,0.053716693,-0.07217771,-0.2661903,0.028666193,0.02935643,-0.15112017,-0.100575075,0.024278127,0.0011860688,-0.018031444,-0.23902236,-0.021102818,-0.0984282,-0.20853795,0.11141683,-0.15718524,-0.08560269,-0.044532295,-0.08464582,-0.070855655,0.25060797,-0.040784515,0.11682948,-0.21962428,-0.16171393,0.048374068,-0.08009075,-0.04101388,-0.35459623,0.25323635,-0.09199047,-0.020956645,0.13424385,0.015813513,-0.16974296,-0.069669366,-0.18047678,-0.14676243,-0.008459213,0.1030179,0.13431372,0.16002941,-0.079997286,0.19735727,0.0026704874,-0.100131355,-0.15577303,-0.032628227,-0.042345084,-0.16439289,-0.14402437,0.025193159,0.105106644,-0.02525277,-0.027269559,-0.19818476,0.032287493,0.046005752,-0.22599347,-0.046823356,-0.17853574,-0.24955799,0.05807441,-0.36903605,-0.011963881,0.13542806,0.049880646,0.0077771046,0.39441016,-0.15175667,-0.24077632,-0.014494056,0.0347455,0.0062542115,-0.22397825,0.113726154,0.031624604,0.13432625,-0.19984846,-0.11682499,-0.14628437,-0.31897146,-0.10680272,-0.007840862,-0.15729594,0.10217051,-0.041397035,0.01895462,0.0115271695,-0.15895925,-0.036141463,-0.30796367,-0.0074764215,-0.23988046,0.1514084,-0.010767504,-0.32567394,0.06416525,0.12789978,-0.07193672,0.21374804,0.07505212,-0.20866896,-0.1913124,-0.08406306,0.20492814,-0.056157682,0.15808119,0.13018051,-0.02861806,0.14455417,-0.0216873,0.004155848,0.17758107,-0.07585395,-0.22419634,0.06781766,0.16112772,-0.13018872,0.09186263,0.28211573,0.19626614,0.004836682,0.27946526,-0.18140842,0.043935776,0.04766498,0.10061474,-0.100946836,0.0027781476,-0.12935281,-0.16544627,-0.16348737,0.033686943,0.28842106,-0.13387862,-0.13906293,-0.3639002,0.13643846,-0.10971504,-0.08204493,-0.083544545,0.021258485,0.11854068,-0.07270166,-0.118915275,-0.06879812,0.239433,0.06456743,0.07439315,-0.10775769,0.0451814,-0.16917363,-0.18553442,0.2618937,0.23300503,-0.06136618,0.025675144,0.0023354024,0.08042645,-0.15358904,0.038161453,-0.19078466,-0.15843219,0.12564163,-0.082794495,-0.10295489,-0.1546954,-0.034835886,0.06207975,-0.08170134,0.03298195,-0.08450501,-0.0732245,0.1748386,-0.18709385,-0.058633517,-0.0690236,-0.24013658,0.027591025,0.053384088,-0.050703056,0.124959975,0.06237644,0.2803632,0.057190973,-0.15463819,-0.13700102,-0.035374824,0.02195319,-0.12424049,-0.015035985,-0.015294709,-0.14642432,0.28802606,0.063832514,-0.01947509,0.03375166,0.06944514,0.15778491,-0.0047420533,-0.18177092,-0.19492292,0.13488105,0.10069737,-0.04864588,-0.056801513,-0.09075529,-0.03523238,-0.10784801,-0.18502718,0.06911917,0.030547747,-0.017419422,-0.43991923,-0.055573143,-0.12643974,-0.014277367,-0.2100855,-0.10072757,0.007457399,-0.075228326,-0.03331622,0.06355284,0.13227268,0.020581046,0.13305107,-0.17773816,-0.19596586,0.24687359,0.099412926,-0.14130469,0.07054037,-0.15254335,0.045354765,0.06594546,-0.084811635,-0.15068817,-0.042332727,0.2003252,-0.098736055,0.023866132,0.047719046,-0.04556319,-0.10907487,-0.25494355,0.1430817,-0.13415457,0.07131239,-0.1660587,-0.0052390774,0.04209548,0.058705743,0.08371763,0.20159502,-0.15637918,-0.016290009,-0.17712866,-0.10658085,0.049682222,-0.09374771,0.12401599,-0.0047363876,0.01426183,0.0014900368,0.06855649,-0.11591105,0.051385775,-0.08761222,-0.09182818,0.19098161,0.11561318,-0.08856611,-0.08764563,0.12377411,-0.051437207,0.042991333,0.11763608,-0.021250948,0.055264216,0.022863088,-0.12520304,-0.100535244,-0.007984138,-0.043260984,-0.09578586,0.09602777,-0.007380723,0.06332357,0.000298732,-0.015673907,-0.013820205,-0.07629214,-0.11790183,0.12651545,-0.013721841,-0.04212532,0.008538046,-0.06421547,0.025946742,-0.022586735,-0.11033966,0.034949444,0.057519596,-0.06558775,0.009250966,0.066610776,0.03440679,0.0704266,-0.19067742,0.030577248,-0.06569847,-0.049093034,0.01596388,0.12348969,0.12584117,-0.0065029967,-0.19246207,-0.064382136,0.0036583717,-0.015744803,-0.03249481,-0.019136913,0.031412788,-0.095242046,-0.06786128,0.004312548,0.012780995,0.043534055,-0.06958316,0.0323427,0.06303774,0.0025505447,0.0985783,-0.0067719566,-0.13719583,-0.040658228,-0.06836741,0.066610806,0.077517,0.027215172,0.053100277,0.11106061,-0.086920135,0.024187807,0.06642145,0.21828146,-0.0054869046,-0.07656161,0.0051307827,-0.054479856,-0.16763546,-0.027534751,0.023202388,0.10267386,0.039429277,-0.0123151345,0.01243783,-0.05459792,0.027991885,-0.08008983,-0.095033966,-0.023702666,-0.052336898,0.09129842,0.055551358,-0.0046910467,-0.06754784,-0.07866222,0.09065756,0.09007538,-0.07585254,-0.017294377,0.045285743,0.04550565,-0.025934335,-0.16745359,0.07336829,-0.02338551,-0.09290302,0.16586518,0.09520702,0.09683691,-0.091512464,-0.004601622,0.1363009,0.083593644,-0.040062614,-0.13362385,-0.21797775,0.09776434,0.05137907,-0.056166466,0.07882876,-0.1925585,-0.1203218,-0.12317015,0.14339982,-0.2348714,-0.0383744,-0.0042729345,-0.03840413,-0.096557006,-0.071264334,-0.057805732,-0.023030408,-0.055851366,0.12632756,-0.0148931565,0.066602714,-0.34546772,-0.04180147,-0.049893595,-0.03453437,0.027935738,-0.09707678,0.008168049,0.11582975,0.103670396,0.013110209,-0.053238686,-0.013760257,0.022911211,0.041911986,-0.028776195,0.15551785,0.011371152,0.0001658081,0.029219206,-0.08025683,0.0814054,-0.13760132,-0.19356096,-0.014247003,0.057620663,0.0478898,-0.25085887,0.13231239,-0.07292986,0.21775539,-0.096605,-0.02138902,0.17066021,0.053098843,0.06179424,0.16752888,-0.09951574,-0.057907496,-0.06612548,0.1288772,-0.13735881,-0.013911492,-0.1231771,-0.07401496,0.14670649,-0.071164355,-0.045832813,0.061599027,0.13077001,-0.034783915,0.09059651,-0.16729115,0.02567598,-0.1772607,-0.054666497,-0.15449002,0.10600819,0.12837017,-0.038526203,-0.05890669,-0.14853047,-0.14220439,0.010051737,0.090569675,0.0013503797,-0.12492772,-0.102122985,0.042906523,0.011526235,0.0725974,0.111037865,-0.09859494,-0.15889719,0.09334762,-0.03430782,0.039685436,-0.37793583,-0.09676055,-0.13373053,-0.073936716,-0.056421094,-0.07175022,-0.13412826,-0.013527057,-0.072380826,-0.06627154,-0.098150544,-0.07879031,-0.04280506,0.026569523,-0.056313347,-0.13876419,-0.069412865,0.1673415,-0.0033562891,0.04426831,-0.12236776,-0.048804525,0.06568221,0.02086519,0.18246222,0.09267148,-0.030837443,0.14103658,0.009553221,0.027887207,0.09359059,0.108285345,0.009347431,0.09241478,-0.12664169,-0.15984972,0.052327693,-0.32126105,0.040304642,0.007854934,0.18807065,0.05579237,0.055425726,-0.04721215,-0.2472262,0.085598946,-0.049065202,-0.03157772,0.14786021,0.17781743,-0.0350216,0.05149155,-0.13209997,0.08967444,0.0768187,-0.06565515,0.07260533,0.14355262,0.009798794,-0.013253752,0.21759532,0.050598253,-0.11985747,-0.20774172,-0.09727368,0.093899,-0.27805802,0.027975442,0.13443066,-0.03229646,-0.14004552,-0.06369686,-0.07277792,0.08111918,-0.10511322,0.017955864,-0.14589076,-0.0852457,-0.05516317,0.12212499,-0.053164277,0.10484566,0.05897639,0.20243418,0.113246985,-0.029566003,0.024722885,0.07920877,0.036038842,0.12067244,0.10811471,-0.012108509,0.026962994,0.06902714,-0.03318147,-0.067586295,-0.04419577,0.043359816,-0.14770645,-0.043250658,0.32113087,-0.01798815,0.008591737,0.06779979,0.06795384,-0.24565715,-0.01811548,-0.039258424,-0.04898035,-0.14984411,-0.07975989,0.19599892,-0.07915628,-0.08028521,-0.023507858,-0.111544386,0.035153944,0.047133878,-0.09840236,0.052062605,-0.13524614,0.07895258,0.1445446,-0.054180257,0.10167961,0.007130423,0.020257976,-0.104047805,0.050865345,0.03492694,0.05551347,0.1815477,-0.22058009,-0.056785252,0.21333069,-0.29729876,-0.09619041,0.11863096,0.018660381,0.18436581,-0.035261907,-0.07374153,0.028957047,-0.050006617,-0.184209,-0.10473235,-0.18140998,-0.056653228,-0.27966008,-0.22834533,0.27522457,-0.045345556,-0.0159335,0.08995101,-0.103392266,-0.009095901,0.29205647,-0.15619656,-0.24485184,0.09052213,0.028140914,0.028231865,0.19810279,-0.1206452,-0.2522017,-0.2312283,0.10087866,0.1879479,0.17034747,0.20320472,-0.0051847934,0.3186661,0.117897995,-0.018468935,-0.06343552,0.095297165,-0.13032855,-0.1367032,0.1060408,0.09255922,0.057069,0.04191278,0.22078475,0.15075035,-0.051015317,-0.033245068,-0.077465124,0.22408369,-0.06484276,-0.08250232,-0.12209004,0.113342404,-0.23063408,0.27402085,-0.0844883,0.15956995,-0.045142625,-0.1355528,0.03269334,0.18000826,-0.2329221,-0.0021207845,0.05604704,0.24033308,0.022625623,-0.17074737,-0.23220792,0.04056104,-0.0016963962,0.3510581,-0.032145325,0.4268103,-0.10452031,0.09868081,-0.0846579,0.03207509,-0.24398752,-0.23591895,-0.13897653,-0.0047156042,0.22671437,0.10742396,-0.031683054,-0.2751014,-0.008027293,-0.2870589,-0.07223909,-0.120518796,0.052181873,-0.41108772,0.16521092,0.13728887,0.06585694,-0.12559256,0.12110262,-0.12223487,0.16926129,0.04832453,-0.18211924,0.09179737,-0.4021291,0.21233222,0.025616098,-0.04105514,0.106049955,-0.009503027,-0.114338,0.013463055,0.016170992,0.13745797,0.07873377,0.24321885,0.1183662,-0.005225621,-0.12940708,0.27336994,0.10344679,0.13938011,-0.011440104,-0.08447349,0.13519783,0.13847227,0.18443373,-0.02358547,0.13824283,0.06323441,-0.08766861,0.06756723,0.20456308,0.16907689,-0.020806307,0.040547647,0.16574936,-0.15916787,0.168219,0.08351484,-0.0048115216,0.049524415,-0.030183783,-0.114476204,0.15086815,-0.04947134,-0.030695438,-0.0033758567,0.3400317,0.11764642,0.09758608,-0.13138725,0.027154006,-0.03196583,0.062203597,-0.027075423,-0.1490969,0.19748598,0.13298611,-0.035487115,-0.09438902,0.07950895,-0.10066143,0.029709743,-0.16512701,-0.09924695,-0.12538974,-0.20064804,0.09338756,-0.038479436,0.03790087,-0.086082906,-0.11344479,-0.054550674,0.03285028,-0.14007442,0.22856794,-0.22431017,-0.069403484,0.22447312,-0.15421498,0.061562326,0.2651734,-0.172022,0.14070131,-0.11917256,0.08710834,-0.13352278,0.09069643,0.08746754,0.30452773,0.018085849,-0.0246073,-0.18339372,0.08198238,-0.054173455,0.09390011,0.02942102,-0.003953594,0.009870183,0.023601752,0.16125633,0.21362734,0.010313001,-0.2870933,-0.13278922,-0.13825244,0.1330504,0.07729583,0.30594125,-0.085686915,0.035833243,0.19667622,0.31279728,-0.18355663,0.008230686,0.1482437,0.11521804,-0.10855385,-0.021981401,0.016766803,-0.1534429,0.11562751,0.13253477,0.3530124,-0.2799934,0.04920099,0.06568157,0.12576231,0.06612171,0.038935635,-0.050024852,0.06940176,-0.075843334,0.035138328,-0.02739283,-0.027649611,-0.01821034,-0.0061188284,0.06154148,0.12242637,0.0058168783,0.060091544,-0.047727745,0.05117178,-0.12477239,0.17230658,0.028913617,0.19271852,-0.018126778,-0.002203122,0.024428166,-0.055689372,0.23444988,-0.039654694,0.07348163,-0.028751224,-0.04419698,-0.013018665,0.08491847,-0.023106255,0.095662765,0.010052363,-0.14652564,0.10560265,-0.018625839,-0.01607161,0.09071971,0.269005,0.22039488,-0.009497191,-0.17163935,-0.076029666,0.049507573,0.19202082,-0.01648376,-0.17750324,0.32228807,0.109920636,-0.040049225,0.047762733,0.15011336,0.1355231,-0.032274656,-0.1825611,-0.2265601,-0.008629043,-0.12452325,-0.04798137,0.09267224,0.10246311,-0.007570298,-0.14450483,-0.054421175,0.06271888,-0.08160495,-0.012468324,-0.099142,0.059212085,0.076137625,-0.21931003,0.0798356,0.17318854,0.0041310703,0.20287213,0.09466468,-0.0296511,0.044135205,0.07500391,0.17636663,0.16666023,0.09427463,0.03447944,-0.12010289,0.07033745,0.042985912,0.091963306,0.023703177,0.1642353,-0.01906548,-0.15882222,0.24433364,-0.0024681436,-0.06794399,-0.2520348,0.024125032,-0.032578085,-0.004290356,0.0065447097,0.27227232,-0.1317464,-0.116846174,0.15053268,0.32672736,-0.0065942383,-0.092075445,0.012152879,0.151479,-0.014982157,0.078067094,0.011799785,-0.058638185,0.07740759,0.09807364,0.24726029,-0.14838247,0.07601306,-0.086108394,0.0946209,-0.013538722,0.021369806,0.10669377,0.030332915,-0.04456357,-0.030380487,-0.08593864,-0.2599664,-0.12409945,-0.009092315,0.0056124427,-0.14920269,0.029569328,-0.043006636,-0.019613266,-0.23718885,-0.18430908,-0.053344626,-0.027224842,-0.09843397,0.13717417,0.13979635,0.15105936,-0.022326095,-0.14779913,0.13049383,-0.07631943,0.07827965,-0.096772075,0.17131834,-0.03320673,0.14569779,0.1177223,0.021964174,0.06504624,-0.06460351,0.12829892,-0.031711362,0.024501232,-0.24231754,0.113658704,-0.06523168,-0.2330208,-0.08871636,0.016410513,0.059541915,0.11567232,0.1694147,-0.12157363,-0.1077076,0.071849085,-0.057477728,-0.018796364,-0.17994918,0.07527331,0.24256231,-0.08274659,0.01677142,0.0296323,-0.086312905,-0.06686914,0.052197438,-0.051223073,-0.105560675,-0.051491454,-0.03524731,0.07819271,0.09221786,0.02325619,-0.1581209,-0.0564112,-0.0677194,-0.13143478,-0.37892264,0.14331716,-0.04251283,-0.05807561,-0.081805475,-0.078413405,-0.10695481,-0.19576126,-0.37279257,-0.085357554,0.2659139,-0.102913335,0.12874763,0.21817517,0.11651626,0.20564237,-0.10059588,0.034956764,0.018947229,-0.23621252,-0.01184718,0.20398988,0.10160784,0.16684689,0.11775326,-0.19894105,0.08903851,-0.16346705,0.19725558,0.13849819,-0.26543257,-0.3325199,-0.0576669,-0.08818875,-0.0619782,-0.12938748,-0.06713221,-0.15695788,0.18623757,-0.021994628,0.042773843,0.15194239,-0.21473664,0.18467365,-0.1373494,0.03877771,-0.03597911,0.20951588,-0.0150897,0.04892628,-0.08936293,-0.04102807,-0.03143713,0.01942979,0.088683,0.048523083,-0.07774728,0.018352848,0.061974153,-0.044523608,0.02790476,-0.008536262,-0.03790957,-0.008027398,0.13050541,0.015435092,0.1637793,0.041935887,0.03190244,0.10922732,-0.09743916,0.2045559,0.100817606,0.011725486,0.08426236,0.041317396,0.06670371,0.0114299925,-0.0062545063,-0.07019935,0.026356729,-0.09535667,0.1368253,-0.040830094,-0.089864746,-0.04116312,0.23665342,0.042744283,0.20034078,-0.09459203,-0.009690169,0.22405656,0.10820132,-0.008723003,-0.12713696,0.05698514,0.13525839,-0.16426857,-0.034681883,-0.00024181428,-0.09225681,-0.1997547,0.043173984,-0.14255689,0.08295828,-0.18023954,-0.06974749,0.02831987,0.067301854,-0.14542212,0.06524292,-0.032375857,0.034433477,-0.16614786,-0.17392237,-0.09493142,0.023028448,0.07364022,-0.05442689,-0.059604526,-0.044843774,-0.006627408,0.25784436,0.07809609,-0.13928859,0.05943342,0.048930217,0.033144306,0.018552924,0.05601124,-0.1041634,-0.016216245,0.04583678,0.043638237,0.06598429,-0.072029926,0.016817942,0.04340601,0.042614732,0.0812959,0.02679861,0.044283297,-0.06944068,-0.095994726,-0.059076868,-0.028950844,0.053871688,0.04275589,-0.16799425,-0.11084342,0.022570252,0.09294308,-0.061157,-0.053795103,-0.12116148,0.019666411,-0.05644591,0.023695488,0.22290038,-0.116150506,-0.05345349,0.09983192,0.12172552,0.05636738,0.15912902,-0.017372232,-0.09463844,-0.009928222,0.03666943,-0.055419866,-0.026385706,-0.13565978,-0.09385945,-0.1086739,0.021176001,-0.021048326,-0.03887021,0.2134838,-0.06663262,0.018440647,-0.19701904,0.06632882,0.010161611,-0.090417646,-0.01974828,0.03396831,0.077049986,0.07315804,0.13522099,0.01686692,-0.04601933,0.06748165,0.013500397,0.10911847,-0.109117255,-0.16084704,0.13420987,0.16167973,0.078463145,0.018562607,0.05223959,-0.11020146,0.055777777,-0.045390744,-0.25270426,0.17985721,-0.058981556,0.08165194,0.051214658,0.004808067,0.112868264,0.009802147,-0.07540446,-0.13052332,-0.11914844,-0.09258709,-0.045334987,-0.018018177,0.003850446,0.19654334,-0.2306921,-0.057103496,-0.1649602,-0.053053964,-0.10327006,-0.1702792,-0.093217656,0.12018789,0.06157901,-0.13216439,-0.027159045,-0.082991034,0.029068215,0.0838121,0.0152671235,-0.1905856,-0.06763276,0.025310636,0.03371417,-0.00966381,-0.11554492,0.11399915,0.090593,0.0084515065,-0.039550483,-0.22334139,-0.038498987,0.055726826,-0.04672876,-0.10928896,0.11818512,0.037675343,-0.14127108,-0.04948842,0.14978917,0.0063157356,0.14743733,-0.09915617,0.13425297,0.0024737595,-0.002615751,0.09770848,0.074975476,-0.1031227,0.17447875,0.041497953,-0.016160896,-0.064919956,0.019317783,0.04562468,0.07216966,0.057838883,-0.12460935,-0.057033885,-0.09366786,-0.14308295,-0.060742825,-0.10335809,0.06990226,0.039668165,0.045881163,-0.04593634,-0.03732252,0.123097055,-0.012235712,-0.10723169,-0.091164604,0.017101519,0.10831517,0.13624407,0.028711101,-0.058698528,-0.20746714,-0.12495813,0.045764703,-0.20718771,-0.060015492,0.03383056,-0.056180928,-0.13628794,-0.044151712,0.10926786,0.03816795,-0.0018038499,-0.20526119,-0.13657618,-0.04308047,0.06894472,-0.008069248,-0.13595296,0.034327477,-0.02953306,-0.104674034,-0.06347832,-0.21592708,-0.05016402,-0.09284472,-0.006139803,-0.075337134,-0.13085127,0.20276986,-0.15795565,-0.3761167,-0.06627979,0.0080643715,-0.004689355,-0.23358057,-0.054983895,0.06943613,0.19199459,0.154884,-0.17980324,-0.093639925,-0.12377315,0.09561342,-0.05177408,-0.10972789,-0.12032611,-0.079046965,-0.104647934,0.1029725,-0.0053916066,0.006933075,0.07080383,-0.011641228,0.07817862,0.0022572405,0.059996855,-0.1299729,-0.0039508846,-0.113124095,0.11958822,-0.027950808,-0.00030189982,-0.0030152712,0.08113387,-0.09561709,-0.24729328,0.065280885,0.13173519,-0.036965758,-0.045605764,-0.23146763,0.0017861489,0.08190531,-0.033672795,-0.09370099,0.16444254,-0.13546392,-0.02588754,-0.17345865,-0.028798372,-0.11326186,0.0462571,0.04236199,-0.03064305,0.15066132,-0.043164413,-0.08284696,0.01787077,-0.25636837,-0.11491749,0.330324,0.014331517,-0.016696319,-0.19541289,-0.008027703,-0.16096635,-0.007967063,0.136235,-0.049736734,0.038541038,-0.019019946,0.120569706,0.06823654,-0.045309782,0.03768268,-0.09302975,-0.13203312,0.086730376,-0.057447374,-0.060511295,-0.21737482,-0.121453494,-0.036075626,-0.051636647,